the 0.418 0.24968 -0.41242 0.1217 0.34527 -0.044457 -0.49688 -0.17862 -0.00066023 -0.6566 0.27843 -0.14767 -0.55677 0.14658 -0.0095095 0.011658 0.10204 -0.12792 -0.8443 -0.12181 -0.016801 -0.33279 -0.1552 -0.23131 -0.19181 -1.8823 -0.76746 0.099051 -0.42125 -0.19526 4.0071 -0.18594 -0.52287 -0.31681 0.00059213 0.0074449 0.17778 -0.15897 0.012041 -0.054223 -0.29871 -0.15749 -0.34758 -0.045637 -0.44251 0.18785 0.0027849 -0.18411 -0.11514 -0.78581
of 0.70853 0.57088 -0.4716 0.18048 0.54449 0.72603 0.18157 -0.52393 0.10381 -0.17566 0.078852 -0.36216 -0.11829 -0.83336 0.11917 -0.16605 0.061555 -0.012719 -0.56623 0.013616 0.22851 -0.14396 -0.067549 -0.38157 -0.23698 -1.7037 -0.86692 -0.26704 -0.2589 0.1767 3.8676 -0.1613 -0.13273 -0.68881 0.18444 0.0052464 -0.33874 -0.078956 0.24185 0.36576 -0.34727 0.28483 0.075693 -0.062178 -0.38988 0.22902 -0.21617 -0.22562 -0.093918 -0.80375
to 0.68047 -0.039263 0.30186 -0.17792 0.42962 0.032246 -0.41376 0.13228 -0.29847 -0.085253 0.17118 0.22419 -0.10046 -0.43653 0.33418 0.67846 0.057204 -0.34448 -0.42785 -0.43275 0.55963 0.10032 0.18677 -0.26854 0.037334 -2.0932 0.22171 -0.39868 0.20912 -0.55725 3.8826 0.47466 -0.95658 -0.37788 0.20869 -0.32752 0.12751 0.088359 0.16351 -0.21634 -0.094375 0.018324 0.21048 -0.03088 -0.19722 0.082279 -0.09434 -0.073297 -0.064699 -0.26044
and 0.26818 0.14346 -0.27877 0.016257 0.11384 0.69923 -0.51332 -0.47368 -0.33075 -0.13834 0.2702 0.30938 -0.45012 -0.4127 -0.09932 0.038085 0.029749 0.10076 -0.25058 -0.51818 0.34558 0.44922 0.48791 -0.080866 -0.10121 -1.3777 -0.10866 -0.23201 0.012839 -0.46508 3.8463 0.31362 0.13643 -0.52244 0.3302 0.33707 -0.35601 0.32431 0.12041 0.3512 -0.069043 0.36885 0.25168 -0.24517 0.25381 0.1367 -0.31178 -0.6321 -0.25028 -0.38097
in 0.33042 0.24995 -0.60874 0.10923 0.036372 0.151 -0.55083 -0.074239 -0.092307 -0.32821 0.09598 -0.82269 -0.36717 -0.67009 0.42909 0.016496 -0.23573 0.12864 -1.0953 0.43334 0.57067 -0.1036 0.20422 0.078308 -0.42795 -1.7984 -0.27865 0.11954 -0.12689 0.031744 3.8631 -0.17786 -0.082434 -0.62698 0.26497 -0.057185 -0.073521 0.46103 0.30862 0.12498 -0.48609 -0.0080272 0.031184 -0.36576 -0.42699 0.42164 -0.11666 -0.50703 -0.027273 -0.53285
a 0.21705 0.46515 -0.46757 0.10082 1.0135 0.74845 -0.53104 -0.26256 0.16812 0.13182 -0.24909 -0.44185 -0.21739 0.51004 0.13448 -0.43141 -0.03123 0.20674 -0.78138 -0.20148 -0.097401 0.16088 -0.61836 -0.18504 -0.12461 -2.2526 -0.22321 0.5043 0.32257 0.15313 3.9636 -0.71365 -0.67012 0.28388 0.21738 0.14433 0.25926 0.23434 0.4274 -0.44451 0.13813 0.36973 -0.64289 0.024142 -0.039315 -0.26037 0.12017 -0.043782 0.41013 0.1796
for 0.15272 0.36181 -0.22168 0.066051 0.13029 0.37075 -0.75874 -0.44722 0.22563 0.10208 0.054225 0.13494 -0.43052 -0.2134 0.56139 -0.21445 0.077974 0.10137 -0.51306 -0.40295 0.40639 0.23309 0.20696 -0.12668 -0.50634 -1.7131 0.077183 -0.39138 -0.10594 -0.23743 3.9552 0.66596 -0.61841 -0.3268 0.37021 0.25764 0.38977 0.27121 0.043024 -0.34322 0.020339 0.2142 0.044097 0.14003 -0.20079 0.074794 -0.36076 0.43382 -0.084617 0.1214
that 0.88387 -0.14199 0.13566 0.098682 0.51218 0.49138 -0.47155 -0.30742 0.01963 0.12686 0.073524 0.35836 -0.60874 -0.18676 0.78935 0.54534 0.1106 -0.2923 0.059041 -0.69551 -0.18804 0.19455 0.32269 -0.49981 0.306 -2.3902 -0.60749 0.37107 0.078912 -0.23896 3.839 -0.20355 -0.35613 -0.69185 -0.17497 -0.35323 0.10598 -0.039303 0.015701 0.038279 -0.35283 0.44882 -0.16534 0.31579 0.14963 -0.071277 -0.53506 0.52711 -0.20148 0.0095952
on 0.30045 0.25006 -0.16692 0.1923 0.026921 -0.079486 -0.91383 -0.1974 -0.053413 -0.40846 -0.26844 -0.28212 -0.5 0.1221 0.3903 0.17797 -0.4429 -0.40478 -0.9505 -0.16897 0.77793 0.33525 0.3346 -0.1754 -0.12017 -1.7861 0.29241 0.55933 0.029982 -0.32417 3.9297 0.1088 -0.57335 -0.17842 0.0041748 -0.16309 0.45077 -0.16123 -0.17311 -0.087889 -0.089032 0.062001 -0.19946 -0.38863 -0.18232 0.060751 0.098603 -0.07131 0.23052 -0.51939
is 0.6185 0.64254 -0.46552 0.3757 0.74838 0.53739 0.0022239 -0.60577 0.26408 0.11703 0.43722 0.20092 -0.057859 -0.34589 0.21664 0.58573 0.53919 0.6949 -0.15618 0.05583 -0.60515 -0.28997 -0.025594 0.55593 0.25356 -1.9612 -0.51381 0.69096 0.066246 -0.054224 3.7871 -0.77403 -0.12689 -0.51465 0.066705 -0.32933 0.13483 0.19049 0.13812 -0.21503 -0.016573 0.312 -0.33189 -0.026001 -0.38203 0.19403 -0.12466 -0.27557 0.30899 0.48497
was 0.086888 -0.19416 -0.24267 -0.33391 0.56731 0.39783 -0.97809 0.03159 -0.61469 -0.31406 0.56145 0.12886 -0.84193 -0.46992 0.47097 0.023012 -0.59609 0.22291 -1.1614 0.3865 0.067412 0.44883 0.17394 -0.53574 0.17909 -2.1647 -0.12827 0.29036 -0.15061 0.35242 3.124 -0.90085 -0.02567 -0.41709 0.40565 -0.22703 0.76829 0.60982 0.070068 -0.13271 -0.1201 0.096132 -0.43998 -0.48531 -0.5188 -0.3077 -0.75028 -0.77 0.3945 -0.16937
said 0.38973 -0.2121 0.51837 0.80136 1.0336 -0.27784 -0.84525 -0.25333 0.12586 -0.90342 0.24975 0.22022 -1.2053 -0.53771 1.0446 0.62778 0.39704 -0.15812 0.38102 -0.54674 -0.44009 1.0976 0.013069 -0.89971 0.41226 -2.2309 0.28997 0.32175 -0.72738 -0.092244 3.028 -0.062599 0.038329 0.0072918 -0.35388 -0.92256 0.097932 0.10068 1.2116 0.88233 -0.46297 1.3186 0.32705 -0.73446 0.89301 -0.45324 -1.2698 0.86119 0.1415 1.2018
with 0.25616 0.43694 -0.11889 0.20345 0.41959 0.85863 -0.60344 -0.31835 -0.6718 0.003984 -0.075159 0.11043 -0.73534 0.27436 0.054015 -0.23828 -0.13767 0.011573 -0.46623 -0.55233 0.083317 0.55938 0.51903 -0.27065 -0.28211 -1.3918 0.17498 0.26586 0.061449 -0.273 3.9032 0.38169 -0.056009 -0.004425 0.24033 0.30675 -0.12638 0.33436 0.075485 -0.036218 0.13691 0.37762 -0.12159 -0.13808 0.19505 0.22793 -0.17304 -0.07573 -0.25868 -0.39339
he -0.20092 -0.060271 -0.61766 -0.8444 0.5781 0.14671 -0.86098 0.6705 -0.86556 -0.18234 0.15856 0.45814 -1.0163 -0.35874 0.73869 -0.24048 -0.33893 0.25742 -0.78192 0.083528 0.1775 0.91773 0.64531 -0.19896 0.37416 -2.7525 -0.091586 0.040349 -0.064792 -0.31466 3.3944 0.044941 -0.55038 -0.65334 0.10436 0.016394 0.24388 1.0085 0.31412 -0.33806 -0.16925 0.10228 -0.62143 0.19829 -0.36147 -0.24769 -0.38989 -0.33317 -0.041659 -0.013171
as 0.20782 0.12713 -0.30188 -0.23125 0.30175 0.33194 -0.52776 -0.44042 -0.48348 0.03502 0.34782 0.54574 -0.2066 -0.083713 0.2462 0.15931 -0.0031349 0.32443 -0.4527 -0.22178 0.022652 -0.041714 0.31815 0.088633 -0.03801 -1.8212 -0.50917 -0.097544 -0.08953 0.050476 3.718 -0.16503 -0.078733 -0.57101 0.20418 0.13411 0.074281 0.087502 -0.25443 -0.15011 -0.15768 0.39606 -0.23646 -0.095054 0.07859 -0.012305 -0.49879 -0.35301 0.05058 0.019495
it 0.61183 -0.22072 -0.10898 -0.052967 0.50804 0.34684 -0.33558 -0.19152 -0.035865 0.1051 0.07935 0.2449 -0.4373 -0.33344 0.57479 0.69052 0.29713 0.090669 -0.54992 -0.46176 0.10113 -0.02024 0.28479 0.043512 0.45735 -2.0466 -0.58084 0.61797 0.6518 -0.58263 4.0786 -0.2542 -0.14649 -0.34321 -0.25437 -0.44677 0.12657 0.28134 0.13331 -0.36974 0.050059 -0.10058 -0.017907 0.11142 -0.71798 0.491 -0.099974 -0.043688 -0.097922 0.16806
by 0.35215 -0.35603 0.25708 -0.10611 -0.20718 0.63596 -1.0129 -0.45964 -0.48749 -0.080555 0.43769 0.46046 -0.80943 -0.23336 0.46623 -0.10866 -0.1221 -0.63544 -0.73486 -0.24848 0.4317 0.092264 0.52033 -0.46784 0.016798 -1.5124 -0.19986 -0.43351 -0.59247 0.18088 3.5194 -0.7024 0.23613 -0.68514 -0.37009 -0.080451 0.10635 -0.085495 -0.18451 0.29771 0.18123 0.53627 -0.1001 -0.55165 0.098833 -0.12942 -0.82628 -0.4329 -0.10301 -0.56079
at 0.27724 0.88469 -0.26247 0.084104 0.40813 -1.1697 -0.68522 0.1427 -0.57345 -0.58575 -0.50834 -0.86411 -0.52596 -0.56379 0.32862 0.43393 -0.21248 0.49365 -1.8137 -0.035741 1.3227 0.80865 0.012217 -0.087017 -0.16813 -1.5935 0.47034 0.26097 -0.41666 -0.38526 3.4413 0.34383 -0.035895 -0.5678 0.18377 -0.48647 0.42646 0.4408 1.0931 0.063915 -0.064305 -0.29231 0.086502 0.35245 0.17891 0.25941 0.37069 -0.51611 0.023163 0.05779
from 0.41037 0.11342 0.051524 -0.53833 -0.12913 0.22247 -0.9494 -0.18963 -0.36623 -0.067011 0.19356 -0.33044 0.11615 -0.58585 0.36106 0.12555 -0.3581 -0.023201 -1.2319 0.23383 0.71256 0.14824 0.50874 -0.12313 -0.20353 -1.82 0.22291 0.020291 -0.081743 -0.27481 3.7343 -0.01874 -0.084522 -0.30364 0.27959 0.043328 -0.24621 0.015373 0.49751 0.15108 -0.01619 0.40132 0.23067 -0.10743 -0.36625 -0.051135 0.041474 -0.36064 -0.19616 -0.81066
his -0.033537 0.47537 -0.68746 -0.72661 0.84028 0.64304 -0.75975 0.63242 -0.54176 0.11632 -0.20254 0.63321 -1.2677 -0.17674 0.35284 -0.55096 -0.65025 -0.3405 -0.31658 -0.077908 -0.11085 0.97299 -0.016844 -0.73752 0.47852 -2.7069 -0.42417 -0.053489 0.018467 -0.11892 3.3082 0.17864 -0.50702 -0.22894 0.24178 0.5698 0.097113 0.95422 0.0076093 -0.54154 0.09828 0.41533 -1.116 0.0050954 -0.14975 -0.45133 -0.081188 -0.62173 -0.022628 -0.4383
an 0.36143 0.58615 -0.23718 0.079656 0.80192 0.49919 -0.33172 -0.19785 0.13876 0.16804 0.12557 -0.24494 -0.092315 0.35135 -0.024396 -0.31713 0.071206 0.37087 -0.82027 0.21193 -0.052153 0.29928 -0.49494 -0.12546 -0.012394 -2.2174 -0.082666 0.15184 0.050396 0.61229 3.7305 -0.93152 -0.28716 -0.48056 0.060682 0.058104 0.42065 -0.046598 0.083503 -0.23819 0.38828 0.36926 -0.44066 0.075673 -0.050556 -0.42269 -0.21577 0.39362 0.36523 0.36077
be 0.91102 -0.22872 0.2077 -0.20237 0.50697 -0.057893 -0.41729 -0.075341 -0.30454 -0.003286 0.44481 0.41818 -0.33409 0.032917 0.98872 0.91984 0.40521 0.01925 -0.1052 -0.79865 -0.36403 -0.087995 0.72182 0.11114 0.2153 -1.9411 -0.26376 0.4455 0.27586 -0.21104 4.0212 -0.061943 -0.32134 -0.81922 0.2108 -0.20414 0.72625 0.47517 -0.39853 -0.39168 -0.34581 0.025928 0.13072 0.73562 -0.15199 -0.18439 -0.67128 0.16692 -0.050063 0.19241
has 0.54822 0.038847 0.10127 0.31319 0.095487 0.41814 -0.79493 -0.58296 0.026643 0.12392 0.35194 -0.02163 -0.87018 -0.27178 0.65449 0.42934 0.097544 0.31779 -0.11921 -0.097106 -0.47585 0.24907 0.1223 -0.29079 -0.16866 -2.1072 0.022174 0.45277 -0.64485 0.13181 3.6594 -0.1714 0.23919 -0.42249 -0.088331 -0.32925 -0.12847 0.47055 -0.075953 -0.27747 -0.41905 0.60803 -0.24261 0.014885 -0.23204 0.020879 -0.82175 0.26588 -0.40267 -0.17111
are 0.96193 0.012516 0.21733 -0.06539 0.26843 0.33586 -0.45112 -0.60547 -0.46845 -0.18412 0.060949 0.19597 0.22645 0.032802 0.42488 0.49678 0.65346 -0.0274 0.17809 -1.1979 -0.40634 -0.22659 1.1495 0.59342 -0.23759 -0.93254 -0.52502 0.05125 0.032248 -0.72774 4.2466 0.60592 0.33397 -0.85754 0.4895 0.21744 -0.13451 0.0094912 -0.54173 0.18857 -0.64506 0.012695 0.73452 1.0032 0.41874 0.16596 -0.71085 0.14032 -0.38468 -0.38712
have 0.94911 -0.34968 0.48125 -0.19306 -0.0088384 0.28182 -0.9613 -0.13581 -0.43083 -0.092933 0.15689 0.059585 -0.49635 -0.17414 0.75661 0.4921 0.21773 -0.22778 -0.13686 -0.90589 -0.48781 0.19919 0.91447 -0.16203 -0.20645 -1.7312 -0.47622 -0.04854 -0.14027 -0.45828 4.0326 0.6052 0.10448 -0.7361 0.2485 -0.033461 -0.13395 0.052782 -0.27268 0.079825 -0.80127 0.30831 0.43567 0.88747 0.29816 -0.02465 -0.95075 0.36233 -0.72512 -0.6089
but 0.35934 -0.2657 -0.046477 -0.2496 0.54676 0.25924 -0.64458 0.1736 -0.53056 0.13942 0.062324 0.18459 -0.75495 -0.19569 0.70799 0.44759 0.27031 -0.32885 -0.38891 -0.61606 -0.484 0.41703 0.34794 -0.19706 0.40734 -2.1488 -0.24284 0.33809 0.43993 -0.21616 3.7635 0.19002 -0.12503 -0.38228 0.12944 -0.18272 0.076803 0.51579 0.0072516 -0.29192 -0.27523 0.40593 -0.040394 0.28353 -0.024724 0.10563 -0.32879 0.10673 -0.11503 0.074678
were 0.73363 -0.74815 0.45913 -0.56041 0.091855 0.33015 -1.2034 -0.15565 -1.1205 -0.5938 0.23299 -0.46278 -0.34786 -0.47901 0.57621 -0.16053 -0.26457 -0.13732 -0.91878 -0.65339 0.05884 0.61553 1.2607 -0.39821 -0.26056 -1.0127 -0.38517 -0.096929 -0.11701 -0.48536 3.6902 0.30744 0.50713 -0.6537 0.80491 0.23672 0.61769 0.030195 -0.57645 0.60467 -0.63949 -0.11373 0.84984 0.41409 0.083774 -0.28737 -1.4735 -0.20095 -0.17246 -1.0984
not 0.55025 -0.24942 -0.0009386 -0.264 0.5932 0.2795 -0.25666 0.093076 -0.36288 0.090776 0.28409 0.71337 -0.4751 -0.24413 0.88424 0.89109 0.43009 -0.2733 0.11276 -0.81665 -0.41272 0.17754 0.61942 0.10466 0.33327 -2.3125 -0.52371 -0.021898 0.53801 -0.50615 3.8683 0.16642 -0.71981 -0.74728 0.11631 -0.37585 0.5552 0.12675 -0.22642 -0.10175 -0.35455 0.12348 0.16532 0.7042 -0.080231 -0.068406 -0.67626 0.33763 0.050139 0.33465
this 0.53074 0.40117 -0.40785 0.15444 0.47782 0.20754 -0.26951 -0.34023 -0.10879 0.10563 -0.10289 0.10849 -0.49681 -0.25128 0.84025 0.38949 0.32284 -0.22797 -0.44342 -0.31649 -0.12406 -0.2817 0.19467 0.055513 0.56705 -1.7419 -0.91145 0.27036 0.41927 0.020279 4.0405 -0.24943 -0.20416 -0.62762 -0.054783 -0.26883 0.18444 0.18204 -0.23536 -0.16155 -0.27655 0.035506 -0.38211 -0.00075134 -0.24822 0.28164 0.12819 0.28762 0.1444 0.23611
who -0.19461 -0.051277 0.26445 -0.57399 1.0236 0.58923 -1.3399 0.31032 -0.89433 -0.13192 0.21305 0.29171 -0.66079 0.084125 0.76578 -0.42393 0.32445 0.13603 -0.29987 -0.046415 -0.74811 1.2134 0.24988 0.22846 0.23546 -2.6054 0.12491 -0.94028 -0.58308 -0.32325 2.8419 0.33474 -0.33902 -0.23434 0.37735 0.093804 -0.25969 0.68889 0.37689 -0.2186 -0.24244 1.0029 0.18607 0.27486 0.48089 -0.43533 -1.1012 -0.67103 -0.21652 -0.025891
they 0.70835 -0.57361 0.15375 -0.63335 0.46879 -0.066566 -0.86826 0.35967 -0.64786 -0.22525 0.09752 0.27732 -0.35176 -0.25955 0.62368 0.60824 0.34905 -0.27195 -0.27981 -1.0183 -0.1487 0.41932 1.0342 0.17783 0.13569 -1.9999 -0.56163 0.004018 0.60839 -1.0031 3.9546 0.68698 -0.53593 -0.7427 0.18078 0.034527 0.016026 0.12467 -0.084633 -0.10375 -0.47862 -0.22314 0.25487 0.69985 0.32714 -0.15726 -0.6202 -0.23113 -0.31217 -0.3049
had 0.60348 -0.52096 0.40851 -0.37217 0.36978 0.61082 -1.3228 0.24375 -0.5942 -0.35708 0.39942 0.031911 -1.0643 -0.52327 0.71453 0.063384 -0.46383 -0.34641 -0.72445 -0.13714 -0.19179 0.72225 0.6295 -0.8086 -0.037694 -2.0355 0.10566 -0.038591 -0.23201 -0.29627 3.3215 0.032443 0.085368 -0.40771 0.45341 -0.099674 0.44704 0.5422 0.18185 0.17504 -0.33833 0.31697 -0.025268 0.095795 -0.25071 -0.47564 -1.0407 -0.15138 -0.22057 -0.59633
which 0.90558 0.054033 -0.024091 0.08111 0.08645 0.65504 -0.34224 -0.76129 0.10258 0.059494 0.30353 -0.10311 -0.28574 -0.35059 0.23319 0.27913 -0.0021905 0.16015 -0.65622 -0.13339 0.38494 -0.20867 0.26137 -0.090254 -0.34935 -1.5398 -0.46352 0.16734 -0.19253 -0.1979 4.008 -0.24514 -0.15461 -0.2889 -0.049511 -0.29696 0.2161 -0.15298 -0.12235 0.071447 -0.11104 -0.15518 -0.026936 -0.067826 -0.56607 0.20991 -0.40505 -0.12906 -0.18325 -0.58796
will 0.81544 0.30171 0.5472 0.46581 0.28531 -0.56112 -0.43913 -0.0090877 0.10002 -0.17218 0.28133 0.37672 -0.40756 0.15836 0.89113 1.2997 0.51508 -0.1948 0.051856 -0.9338 0.069955 -0.24876 -0.016723 -0.2031 -0.033558 -1.8132 0.11199 -0.31961 -0.13746 -0.45499 3.8856 1.214 -1.0046 -0.056274 0.0038776 -0.40669 0.29452 0.30171 0.038848 -0.56088 -0.46582 0.17155 0.33729 -0.15247 0.023771 0.51415 -0.21759 0.31965 -0.34741 0.41672
their 0.41519 0.13167 -0.0569 -0.56765 0.49924 0.21288 -0.81949 0.32257 -0.065374 -0.055513 0.11837 0.36933 -0.46424 -0.072383 0.068214 0.0014523 -0.07322 -0.65668 0.11368 -0.91816 0.029319 0.38103 0.34032 -0.21496 -0.26681 -1.6509 -0.71668 -0.41272 0.48465 -0.62432 4.1939 1.4292 -0.45902 -0.51709 0.2626 0.51086 -0.23999 -0.06962 -0.4561 -0.48333 -0.39544 -0.53831 -0.070727 0.54496 0.2351 -0.18746 -0.2242 -0.11806 -0.34499 -0.86949
or 0.26358 0.18747 0.044394 -0.19119 0.45455 0.66445 0.25855 -0.64886 -0.67653 0.045254 0.071081 0.3645 0.74863 -0.17489 0.28723 0.43277 -0.39184 -0.048568 -0.21373 -0.72992 0.13902 -0.23308 0.70256 0.2176 -0.20647 -1.415 -0.32587 -0.075019 0.88536 -0.56679 4.0296 0.019803 -0.57259 -0.060878 0.14667 0.16532 0.21188 -0.38358 0.42748 -0.096921 0.19285 0.021779 0.58562 0.97633 0.20384 -0.2162 -0.021486 -0.42936 0.52879 -0.12598
its 0.76719 0.1239 -0.11119 0.13355 0.18356 0.057912 -0.3341 -0.60423 0.47637 0.25451 0.19491 -0.061142 -0.45815 -0.17374 -0.32716 0.33472 -0.3218 0.090518 -0.24682 -0.35467 0.55269 -0.33177 -0.58048 -0.55391 -0.64466 -1.8028 -0.65173 0.4374 0.051813 0.22641 4.2766 0.19443 -0.13428 -0.10278 -0.062464 -0.39073 -0.29381 -0.013531 -0.58142 -0.69717 -0.068871 -0.50049 -0.013803 -0.11011 -0.64282 0.4396 -0.22455 0.4893 -0.26152 -0.46886
one 0.31474 0.41662 0.1348 0.15854 0.88812 0.43317 -0.55916 0.030476 -0.14623 -0.14273 -0.17949 -0.17343 -0.49264 0.26775 0.48799 -0.29537 0.18485 0.14937 -0.75009 -0.35651 -0.23699 0.1849 0.17237 0.23611 0.14077 -1.9031 -0.65353 -0.022539 0.10383 -0.43705 3.781 -0.044077 -0.046643 0.027274 0.51883 0.13353 0.23231 0.25599 0.060888 -0.065618 -0.15556 0.30818 -0.093586 0.33296 -0.14613 0.016332 -0.24251 -0.20526 0.07009 -0.11568
new 0.19511 0.50739 0.0014709 0.041914 -0.16759 0.037517 -1.397 -0.92398 -0.24296 -0.15171 -0.47829 0.054612 -0.24986 0.38398 0.016182 0.34938 -0.22627 0.086618 -0.41001 -0.18139 0.75607 -0.0262 -0.69557 0.10874 -0.47539 -1.8095 -0.1694 -0.059863 -0.16806 -0.094546 3.661 0.041462 -0.29161 -0.69772 0.30805 -0.28457 0.13217 -0.007643 -0.09239 -0.49237 -0.27055 0.060425 0.095107 -0.23679 -0.086108 1.0243 -0.22779 0.030488 -0.14272 0.45411
been 0.92884 -0.72457 0.068095 -0.3816 -0.038686 0.22314 -1.1041 0.0084314 -0.26638 -0.057147 0.33383 -0.02368 -0.7689 -0.17933 0.84499 0.28781 -0.12754 0.11154 -0.34022 -0.18687 -0.28446 0.32557 0.87015 -0.21355 -0.094175 -2.0216 -0.2176 0.45054 -0.14068 0.080753 3.7849 -0.4107 0.33195 -0.87998 0.17309 0.14065 0.22707 0.485 -0.51256 -0.021742 -0.69401 0.145 0.0082681 0.38385 0.16011 -0.35487 -1.1284 0.047085 -0.32297 -0.64192
we 0.57387 -0.32729 0.070521 -0.4198 0.862 -0.80001 -0.40604 0.15312 -0.29788 -0.1105 -0.097119 0.59642 -0.99814 -0.28148 1.0152 0.87544 1.0282 -0.05036 0.24194 -1.1426 -0.50601 0.64976 0.74833 0.020473 0.9595 -1.9204 -0.80656 0.29247 1.0009 -0.98565 4.0094 1.0407 -0.82849 -0.4847 -0.36146 -0.39552 0.27891 0.15312 0.15848 0.018686 -0.50905 -0.22916 0.1868 0.44946 0.10229 0.21882 -0.30608 0.48759 -0.18439 0.69939
would 0.7619 -0.29773 0.51396 -0.13303 0.24156 0.066799 -0.54084 0.2071 -0.28225 -0.11638 0.21666 0.54908 -0.36744 -0.10543 0.81567 1.1743 0.56055 -0.3345 0.099767 -0.87465 0.12229 -0.18532 0.086783 -0.36343 0.008002 -2.2268 -0.20079 -0.10313 0.24318 -0.39819 3.7136 0.59088 -1.1013 -0.25292 0.0057067 -0.60475 0.35965 -0.059581 -0.029059 -0.3989 -0.52631 0.12436 0.13609 0.12699 -0.23032 -0.044567 -0.6545 0.43088 -0.22768 0.4026
two 0.58289 0.36258 0.34065 0.36416 0.34337 0.79387 -0.9362 0.11432 -0.63005 -0.55524 -0.28706 -0.47143 -0.75673 0.63868 0.22479 -0.64652 -0.074314 -0.34903 -0.97285 -0.53981 0.015171 0.24479 0.62661 0.070447 -0.51629 -1.2004 0.3122 -0.44053 -0.29869 -0.56326 4.022 0.38463 -0.028468 0.068716 1.0746 0.48309 0.2475 0.22802 -0.35743 0.40392 -0.54738 0.15244 0.41 0.15702 0.0077935 -0.015106 -0.28653 -0.16158 -0.35169 -0.82555
more 0.87943 -0.11176 0.4338 -0.42919 0.41989 0.2183 -0.3674 -0.60889 -0.41072 0.4899 -0.4006 -0.50159 0.24187 -0.1564 0.67703 -0.021355 0.33676 0.35209 -0.24232 -1.0745 -0.13775 0.29949 0.44603 -0.14464 0.16625 -1.3699 -0.38233 -0.011387 0.38127 0.038097 4.3657 0.44172 0.34043 -0.35538 0.30073 -0.09223 -0.33221 0.37709 -0.29665 -0.30311 -0.49652 0.34285 0.77089 0.60848 0.15698 0.029356 -0.42687 0.37183 -0.71368 0.30175
' -0.039369 1.2036 0.35401 -0.55999 -0.52078 -0.66988 -0.75417 -0.6534 -0.23246 0.58686 -0.40797 1.2057 -1.11 0.51235 0.1246 0.05306 0.61041 -1.1295 -0.11834 0.26311 -0.72112 -0.079739 0.75497 -0.023356 -0.56079 -2.1037 -1.8793 -0.179 -0.14498 -0.63742 3.181 0.93412 -0.6183 0.58116 0.58956 -0.19806 0.42181 -0.85674 0.33207 0.020538 -0.60141 0.50403 -0.083316 0.20239 0.443 -0.060769 -0.42807 -0.084135 0.49164 0.085654
first -0.14168 0.41108 -0.31227 0.16633 0.26124 0.45708 -1.2001 0.014923 -0.22779 -0.16937 0.34633 -0.12419 -0.65711 0.29226 0.62407 -0.57916 -0.33947 -0.22046 -1.4832 0.28958 0.081396 -0.21696 0.0056613 -0.054199 0.098504 -1.5874 -0.22867 -0.62957 -0.39542 -0.080841 3.5949 -0.16872 -0.39024 0.026912 0.52646 -0.022844 0.63289 0.62702 -0.22171 -0.45045 -0.14998 -0.27723 -0.46658 -0.44268 -0.43691 0.38455 0.1369 -0.25424 0.017821 -0.1489
up 0.032286 -0.27071 0.68108 -0.27942 0.5797 -0.0081097 -0.82792 -0.53342 -0.47851 -0.068256 -0.46964 -0.31717 -0.49372 0.09808 0.49961 0.27305 0.099922 -0.16148 -0.69952 -0.70435 0.59084 0.62031 0.30467 -0.41578 -0.0222 -1.6312 0.54676 0.25754 0.44541 -0.72799 3.9129 0.80075 -0.18839 0.42435 0.039207 -0.093939 -0.39516 0.20976 0.59488 -0.3907 -0.31555 0.24074 0.41694 0.10415 -0.044305 -0.09516 0.25464 -0.56699 0.033216 -0.58123
when 0.27062 -0.36596 0.097193 -0.50708 0.37375 0.16736 -0.94185 0.54004 -0.66669 -0.24236 0.25876 0.28084 -0.86643 -0.068961 0.90346 0.40877 -0.39563 -0.25604 -1.0316 -0.26669 -0.080584 0.40841 0.55885 -0.18299 0.46494 -2.2671 0.14102 0.19841 0.5153 -0.27608 3.3604 0.15123 -0.36693 -0.28804 0.076042 -0.076662 0.21897 0.39001 0.38684 -0.16961 -0.33674 0.37094 -0.45911 0.00066285 -0.17797 0.12467 -0.015418 -0.75256 -0.17335 -0.22587
there 0.68491 0.32385 -0.11592 -0.35925 0.49889 0.042541 -0.40153 -0.36793 -0.61441 -0.41148 -0.3482 -0.21952 -0.22393 -0.64966 0.85443 0.33582 0.2931 0.16552 -0.55082 -0.61277 -0.14768 0.47551 0.65877 -0.07103 0.56147 -1.2651 -0.74117 0.36365 0.5623 -0.27365 3.8506 0.27645 -0.1009 -0.71568 0.18511 -0.12312 0.56631 -0.22377 -0.016831 0.57539 -0.51761 0.033823 0.19643 0.63498 -0.24866 0.038716 -0.50559 0.17874 -0.1693 0.062375
all 0.19253 0.10006 0.063798 -0.087664 0.52217 0.39105 -0.41975 -0.45671 -0.34053 -0.11175 0.014754 0.31734 -0.50853 -0.1156 0.74303 0.097618 0.34407 -0.1213 -0.16938 -0.84088 -0.11231 0.40602 0.76801 0.091138 0.10782 -1.2673 -0.57709 -0.36208 0.34824 -0.75458 4.0426 0.94967 -0.22668 -0.35777 0.3413 0.13072 0.23045 -0.036997 -0.25889 0.12977 -0.39031 -0.049607 0.45766 0.56782 -0.46165 0.41933 -0.5492 0.081191 -0.30485 -0.30513
out 0.32112 -0.69306 0.47922 -0.54602 0.28352 0.20346 -0.98445 -0.14103 -0.13147 -0.085975 -0.49509 0.00276 -1.1173 0.33729 0.61312 -0.06711 0.3538 -0.35183 -0.58191 -0.69525 -0.025032 0.61675 0.78522 -0.19594 0.26324 -1.8976 0.14645 0.48885 0.61818 -1.012 3.7285 0.66615 -0.33364 0.31896 -0.15174 0.3098 0.04967 0.27144 0.34595 -0.08185 -0.37469 0.39981 0.084925 0.31237 -0.12677 0.036322 -0.069533 -0.43547 -0.1108 -0.585
she 0.060382 0.37821 -0.75142 -0.72159 0.58648 0.79126 -0.72947 0.68248 -0.12999 -0.22988 0.11595 0.22427 -0.44679 -0.11515 1.0334 -0.088019 -0.78531 0.34305 -0.11457 -0.11905 0.45883 1.6333 0.68546 0.22308 1.0099 -2.6332 -0.52128 0.25665 0.023468 -0.82616 3.1084 0.27219 -0.29227 -0.47259 -0.12297 -0.13545 0.11192 0.86438 0.33121 -0.96616 -0.044785 -0.06674 0.0030367 -0.33905 0.017784 -0.58499 -0.005014 -1.257 -0.060723 0.42247
other 0.64756 0.16 0.029191 0.35118 0.089119 0.61115 -0.66362 -0.51724 -0.46521 -0.08845 0.0502 0.26329 0.12407 0.043832 0.17283 0.01317 0.14168 -0.15827 -0.10427 -0.9307 0.21646 -0.10753 0.62087 0.36761 -0.48144 -1.28 -0.55152 -0.72023 -0.17097 -0.47993 4.0165 0.47054 0.093614 -0.86341 0.50881 0.33353 -0.35962 -0.16648 -0.31803 0.49003 -0.36697 0.32051 0.70932 0.62878 0.70128 0.1302 -0.73769 0.10325 -0.30964 -0.44213
her 0.13403 0.89178 -0.76761 -0.64184 0.86204 1.3122 -0.64018 0.82067 0.32783 0.021457 -0.095194 0.40825 -0.63602 -0.018275 0.69708 -0.29531 -1.1912 -0.23897 0.34341 -0.33196 0.23702 1.8364 0.12295 -0.18624 0.86503 -2.636 -0.7791 0.203 0.18985 -0.79897 2.9882 0.44336 -0.28367 -0.19588 0.061875 0.38558 -0.027622 0.71847 0.17156 -1.2168 0.081636 0.17293 -0.31718 -0.37039 0.18977 -0.89175 0.18492 -1.6251 0.039134 -0.10279
than 0.63139 0.15527 0.78529 -0.49967 0.61277 0.38457 -0.24403 -0.65573 -0.34068 0.48923 -0.28453 -0.72291 0.30131 -0.31671 0.98247 -0.020175 0.17482 0.54319 -0.64372 -0.97383 -0.32015 0.053901 0.47347 -0.1922 -0.025826 -1.419 -0.44523 0.018065 0.34342 0.088355 4.0942 0.45804 0.32831 -0.069244 0.26257 -0.2969 -0.28702 0.31656 -0.12812 -0.33309 -0.49709 0.43707 0.67268 0.72685 -0.21323 -0.095752 -0.25779 0.13059 -0.87146 0.19353
over 0.12972 0.088073 0.24375 0.078102 -0.12783 0.27831 -0.48693 0.19649 -0.39558 -0.28362 -0.47425 -0.59317 -0.58804 -0.31702 0.49593 0.0087594 0.039613 -0.42495 -0.97641 -0.46534 0.020675 0.086042 0.39317 -0.51255 -0.17913 -1.8333 0.5622 0.41626 0.075127 0.02189 3.784 0.71067 -0.073943 0.15373 -0.3853 -0.070163 -0.35374 0.074501 -0.084228 -0.45548 -0.081068 0.39157 0.173 0.2254 -0.12836 0.40951 -0.26079 0.090912 -0.60515 -0.9827
into 0.66749 -0.41321 0.065755 -0.46653 0.00027619 0.18348 -0.65269 0.093383 -0.0086802 -0.18874 -0.0063057 0.044894 -0.66801 0.48506 -0.1185 0.19968 0.1818 0.033144 -0.59108 -0.21829 0.41438 0.05674 0.42155 0.27798 -0.11322 -1.9227 0.035513 0.61928 0.62206 -0.63987 3.9115 -0.021078 -0.24685 -0.13922 -0.22545 0.59131 -0.7322 0.1162 0.4155 -0.15188 -0.14933 0.040739 -0.10415 0.23733 -0.438 0.06059 0.55073 -0.96571 -0.26875 -1.1741
last 0.32269 -0.11823 0.15135 0.43472 0.0047741 -0.076197 -1.1967 0.25108 -0.33441 -0.11988 -0.34367 -0.97407 -1.0005 -0.20005 1.5067 -0.0010902 -0.58248 -0.49877 -1.2107 0.19451 0.054259 0.16623 0.26524 -0.7074 -0.47836 -1.9295 0.11138 0.16526 -0.2542 0.26121 3.4639 0.34021 -0.25121 0.31737 0.2334 -0.40882 0.32076 0.31702 0.021898 -0.56169 -0.90129 0.23734 -0.057173 -0.2459 -0.061878 0.20674 -0.48696 0.3648 -0.1861 -0.34686
some 0.92871 -0.10834 0.21497 -0.50237 0.10379 0.22728 -0.54198 -0.29008 -0.64607 0.12664 -0.41487 -0.29343 0.36855 -0.41733 0.69116 0.067341 0.19715 -0.030465 -0.21723 -1.2238 0.0095469 0.19594 0.56595 -0.067473 0.059208 -1.3909 -0.89275 -0.13546 0.162 -0.4021 4.1644 0.37816 0.15797 -0.48892 0.23131 0.23258 -0.25314 -0.19977 -0.12258 0.1562 -0.31995 0.38314 0.47266 0.877 0.32223 0.0013292 -0.4986 0.5558 -0.70359 -0.52693
time 0.02648 0.33737 0.065667 -0.11609 0.41651 -0.21142 -0.69582 0.2822 -0.36077 -0.13822 0.012094 0.086227 -0.84638 0.057195 1.1582 0.14703 -0.0049197 -0.24899 -0.96014 -0.3038 0.23972 0.21058 0.40608 0.17789 0.55253 -1.6357 -0.17784 -0.45222 0.45805 0.14239 3.7087 0.40289 -0.4083 -0.29304 0.030857 -0.15361 0.10607 0.63397 0.12397 -0.25349 -0.10344 0.0069768 -0.17328 0.35536 -0.46369 0.15285 0.41475 -0.3398 -0.23043 0.19069
you -0.0010919 0.33324 0.35743 -0.54041 0.82032 -0.49391 -0.32588 0.0019972 -0.23829 0.35554 -0.60655 0.98932 -0.21786 0.11236 1.1494 0.73284 0.51182 0.29287 0.28388 -1.359 -0.37951 0.50943 0.7071 0.62941 1.0534 -2.1756 -1.3204 0.40001 1.5741 -1.66 3.7721 0.86949 -0.80439 0.1839 -0.34332 0.010714 0.23969 0.066748 0.70117 -0.73702 0.20877 0.11564 -0.1519 0.85908 0.2262 0.16519 0.36309 -0.45697 -0.048969 1.1316
if 0.49861 -0.12284 0.44772 -0.082727 0.78117 0.12032 -0.044677 0.47959 -0.24538 0.07315 0.13542 0.47475 -0.45838 -0.125 1.2397 1.1176 0.52392 -0.25142 0.094939 -0.87224 -0.45383 -0.0098866 0.46122 0.23339 0.3067 -2.4232 -0.21251 0.37548 0.92848 -0.47064 3.6259 0.3914 -0.94158 -0.31952 -0.12849 -0.47342 0.41335 0.041173 0.30079 -0.61249 -0.23717 0.24716 -0.0447 0.62406 -0.27345 0.0087021 -0.22906 0.26395 -0.062214 0.6292
no 0.34957 0.40147 -0.012561 0.13743 0.4008 0.46682 -0.09743 -0.0024548 -0.33564 -0.004639 -0.059101 0.27532 -0.3974 -0.29267 0.97442 0.4188 0.18395 -0.20602 -0.061437 -0.61576 -0.53471 0.41536 0.34851 -0.31878 0.27404 -1.832 -0.82363 0.48816 1.1372 -0.38025 3.8114 0.2551 -0.70637 -0.2582 0.040929 -0.097378 0.79571 -0.49484 0.1087 0.14838 -0.1839 0.13312 0.21469 0.53932 -0.19338 -0.42216 -0.61411 0.70374 0.57591 0.43506
world -0.41486 0.71848 -0.3045 0.87445 0.22441 -0.56488 -0.37566 -0.44801 0.61347 -0.11359 0.74556 -0.10598 -1.1882 0.50974 1.3511 0.069851 0.73314 0.26773 -1.1787 -0.148 0.039853 0.033107 -0.27406 0.25125 0.41507 -1.6188 -0.81778 -0.73892 -0.28997 0.57277 3.4719 0.73817 -0.044495 -0.15119 -0.93503 -0.13152 -0.28562 0.76327 -0.83332 -0.6793 -0.39099 -0.64466 1.0044 -0.2051 0.46799 0.99314 -0.16221 -0.46022 -0.37639 -0.67542
can 0.8052 0.37121 0.55933 -0.011405 0.17319 0.195 0.057701 -0.12447 -0.011342 0.20654 0.41079 0.89578 0.31893 0.030787 0.60194 1.2023 0.68283 -0.13267 0.16984 -1.4674 -0.41844 -0.47395 0.7267 0.61088 0.44584 -1.4793 -0.50037 -0.12249 0.75994 -0.77112 3.9653 0.38077 -0.6439 -0.84899 0.07554 0.17522 0.30117 0.12964 0.27253 -0.32951 0.34211 0.15608 0.20953 0.97948 0.35927 0.19116 0.45494 -0.1895 -0.20902 0.47612
do 0.29605 -0.13841 0.043774 -0.38744 0.12262 -0.6518 -0.2824 0.090312 -0.55186 0.3206 0.0037422 0.93229 -0.22034 -0.21922 0.9217 0.75724 0.84892 -0.0042197 0.53626 -1.2667 -0.61028 0.167 0.82753 0.65765 0.48959 -1.9744 -1.149 -0.21461 0.80539 -1.4745 3.749 1.0141 -1.1293 -0.52661 -0.12029 -0.27931 0.065092 -0.043639 0.60426 -0.20892 -0.45739 0.010441 0.41458 0.689 0.14468 -0.031973 -0.048073 -0.00011279 0.13854 0.96954
only 0.24887 0.21487 0.22899 -0.12671 0.63105 0.51149 -0.4651 0.068288 -0.30937 -0.0070085 0.19937 -0.18019 -0.18827 -0.28697 0.78777 0.067418 0.20876 -0.077169 -0.69009 -0.42171 -0.39751 -0.050562 0.50292 0.10793 0.23047 -1.5503 -0.18474 -0.18316 0.26182 -0.2971 3.9005 0.27993 -0.16575 -0.19005 0.46649 -0.034911 0.57901 0.44878 -0.29949 -0.26163 -0.16132 0.022983 0.29275 0.46456 -0.59639 0.12681 -0.35771 0.029972 -0.14917 -0.084244
could 0.90754 -0.38322 0.67648 -0.20222 0.15156 0.13627 -0.48813 0.48223 -0.095715 0.18306 0.27007 0.41415 -0.48933 -0.0076005 0.79662 1.0989 0.53802 -0.54468 -0.16063 -0.98348 -0.19188 -0.2144 0.19959 -0.31341 0.24101 -2.2662 -0.25926 -0.10898 0.66177 -0.48104 3.6298 0.45397 -0.64484 -0.52244 0.042922 -0.16605 0.097102 0.044836 0.20389 -0.46322 -0.46434 0.32394 0.25984 0.40849 0.20351 0.058722 -0.16408 0.20672 -0.1844 0.071147
us 0.19086 0.24339 1.2768 -0.038207 0.6094 -0.70188 0.040862 -0.44903 0.0080416 -0.18819 -0.68578 -0.12465 -0.32855 -0.073507 0.79112 0.31981 0.081126 -0.033057 -0.6007 0.014536 0.42773 0.71318 0.13327 -0.64247 0.066402 -2.2346 0.013668 -0.45647 0.40542 -0.0042052 3.4561 0.54602 -0.3789 0.58198 -0.22852 -0.8409 -0.30465 -0.69669 -0.4232 -0.81757 0.036113 0.25739 1.745 -0.61482 0.41547 0.40002 -0.51528 0.89973 -0.54324 0.69393
most 0.53248 0.030684 -0.12955 -0.15673 0.25168 0.20269 -0.71869 -0.27819 -0.47384 0.49715 -0.12525 -0.249 0.23788 0.11087 0.44788 -0.10767 0.44033 0.16702 -0.34068 -0.5413 -0.56092 -0.12457 0.23586 0.39872 0.13578 -1.4765 -1.1334 -0.23475 0.17915 0.20182 3.9566 0.0092012 0.61391 -0.75382 0.42119 0.092947 -0.2623 0.48914 -0.78757 -0.10654 -0.68392 0.34472 0.4279 0.71161 0.051375 0.33759 -0.72084 0.069335 -0.34333 -0.067937
against -0.61258 -0.81097 -0.18426 0.33997 -0.22861 0.53968 0.29663 0.51186 -0.80497 0.12117 -0.34306 -0.35708 -1.1692 -0.90632 0.1854 -0.43402 0.2754 -0.92921 -1.2241 0.50564 -0.46115 -0.15904 0.32354 -0.38564 -1.0403 -2.6112 0.84161 -0.59595 0.28015 -0.24324 3.2053 0.64918 -0.45331 -0.42506 -0.19658 -0.018363 -0.045932 -0.11967 -0.64881 -0.75525 -0.14162 0.088434 0.41846 0.14613 0.39816 0.52819 -0.795 0.014036 0.17373 -0.67675
so 0.60308 -0.32024 0.088857 -0.55176 0.53182 0.047069 -0.36246 0.0057018 -0.37665 0.22534 -0.13534 0.35988 -0.42518 0.071324 0.77065 0.56712 0.41226 0.12451 0.1423 -0.96535 -0.39053 0.34199 0.56969 0.031635 0.69465 -1.9216 -0.67118 0.57971 0.86088 -0.59105 3.7787 0.30431 -0.043103 -0.42398 -0.063915 -0.066822 0.061983 0.56332 -0.22335 -0.47386 -0.47021 0.091714 0.14778 0.63805 -0.14356 -0.0022928 -0.315 -0.25187 -0.26879 0.36657
what 0.45323 0.059811 -0.10577 -0.333 0.72359 -0.08717 -0.61053 -0.037695 -0.30945 0.21805 -0.43605 0.47318 -0.76866 -0.2713 1.1042 0.59141 0.56962 -0.18678 0.14867 -0.67292 -0.34672 0.52284 0.22959 -0.072014 0.93967 -2.3985 -1.3238 0.28698 0.75509 -0.76522 3.3425 0.17233 -0.51803 -0.8297 -0.29333 -0.50076 -0.15228 0.098973 0.18146 -0.1742 -0.40666 0.20348 -0.011788 0.48252 0.024598 0.34064 -0.084724 0.5324 -0.25103 0.62546
him 0.11964 -0.045405 0.0511 -0.82873 0.97665 0.11128 -0.54588 1.1561 -0.68081 0.060207 -0.28765 0.88061 -0.91795 -0.18328 0.84184 -0.11856 -0.14957 -0.16155 -0.37406 -0.45342 -0.18517 1.0392 0.55667 -0.14309 0.71394 -2.9407 -0.051859 -0.13871 0.32151 -0.97971 2.9054 0.53426 -0.81418 -0.48852 0.011175 0.42211 0.39004 0.45243 -0.0070671 -0.64889 0.091121 0.4689 -0.58192 0.45654 0.02734 -0.44539 -0.42373 -0.62792 0.024592 -0.14341
before 0.30806 -0.29665 -0.25706 -0.5871 0.095135 -0.15211 -0.91478 0.75727 -0.30423 -0.29058 -0.13034 -0.10095 -0.89755 -0.0047833 0.8006 0.16963 -0.50634 -0.65842 -1.1339 -0.11095 0.65418 0.35378 0.6365 -0.30083 0.026192 -1.9383 0.69073 0.17019 0.19922 -0.39307 3.4795 0.32546 -0.76314 -0.15125 0.18169 -0.0076951 0.55525 0.56142 0.2797 -0.12891 -0.39037 0.0044389 -0.32367 0.0098883 -0.37866 0.30018 0.20875 -0.53844 -0.11058 -0.54785
may 0.7048 0.22261 0.086997 -0.21241 -0.089356 0.43742 -0.2817 0.13378 -0.50859 -0.18242 0.49506 0.42461 0.046785 -0.50121 0.84621 1.0146 -0.43954 -0.65499 -0.64706 -0.23365 0.27612 -0.63294 0.91064 0.033327 -0.058451 -1.6059 -0.34741 -0.36285 0.46723 0.244 3.4249 0.056168 -0.71991 -0.88332 0.33741 -0.53236 0.33991 0.023837 0.2384 -0.38713 -0.49621 -0.14846 0.046201 0.10325 0.17374 0.13763 0.084989 -0.39688 0.17632 0.31862
since 0.15423 -0.12552 0.022279 -0.067561 -0.35975 0.14409 -1.0902 -0.028693 -0.43147 -0.13781 0.37841 -0.63031 -0.9552 -0.20059 1.2613 0.35506 -0.48844 -0.1105 -0.99467 0.56709 0.014872 -0.10873 0.41999 -0.25197 -0.42385 -1.6795 0.021355 -0.11534 0.010638 0.91305 3.6854 -0.11751 -0.093662 -0.43435 0.013842 -0.18345 0.040666 0.39788 -0.33622 -0.20412 -1.1319 -0.12322 -0.24299 -0.11286 -0.55786 0.11893 -0.43917 -0.28507 -0.6303 -0.58676
many 0.6979 0.08234 0.041526 -0.50704 -0.15801 0.36048 -1.0745 -0.23927 -0.74704 0.16007 -0.1842 -0.079723 0.32044 -0.20326 0.59591 -0.067483 0.34272 -0.054553 0.061765 -1.0285 -0.019078 0.065302 0.42329 0.45624 0.20553 -1.2436 -1.1895 -0.66457 -0.049265 -0.26779 4.0103 0.4457 0.40423 -1.0601 0.2829 0.36724 -0.40097 -0.043859 -0.50993 0.39467 -0.68713 0.19318 0.46337 0.91707 0.49551 0.1565 -0.86741 0.037265 -0.60443 -0.64699
while 0.1011 -0.16566 0.22035 -0.10629 0.46929 0.37968 -0.62815 -0.14385 -0.38333 0.055405 0.23511 -0.20999 -0.55395 -0.38271 0.21008 0.02161 -0.23054 -0.13576 -0.61636 -0.4678 0.25716 0.62309 0.3837 -0.25665 0.09041 -1.5184 0.4762 -0.089573 0.025347 -0.25974 3.6121 0.62788 0.15387 -0.062747 0.28699 -0.16471 -0.2079 0.4407 0.065441 -0.10303 -0.15489 0.27352 0.38356 -0.098016 0.10705 -0.083071 -0.27168 -0.49441 0.043538 -0.39141
where 0.69237 0.44971 -0.20293 -0.16783 0.30503 -0.4876 -0.69028 0.18163 -0.16295 -0.47477 -0.0033044 -0.65208 -0.10148 -0.5751 0.30189 0.35639 0.28629 0.47367 -0.71456 -0.018865 0.17096 0.27097 0.19071 0.76326 -0.17586 -1.7981 -0.33722 0.27325 0.054095 -0.5235 3.4908 -0.027619 -0.23949 -0.86976 0.26612 0.087956 -0.19885 0.18534 0.4325 0.41208 -0.3919 0.22857 0.073443 0.10901 -0.23495 0.16082 -0.016364 -1.0347 -0.2416 -0.4868
because 0.52905 -0.30145 0.056191 -0.17905 0.15667 0.32943 -0.45908 0.37409 -0.072841 0.26107 0.36335 0.2312 -0.38076 -0.35675 1.0069 0.83946 0.074725 -0.13565 -0.10166 -0.70857 -0.38247 0.0081454 0.26605 -0.014551 0.16629 -2.2449 -0.45399 0.32594 0.82888 -0.098525 3.7015 0.28394 -0.078514 -0.74285 0.071688 -0.24046 0.15305 0.16139 0.034371 -0.30625 -0.66542 0.15977 0.17563 0.75779 -0.012878 -0.080298 -0.49508 0.067963 -0.10931 0.17161
now 0.40991 0.081369 0.29962 -0.2535 0.30073 -0.23569 -0.89244 -0.232 -0.24374 -0.14191 0.026541 -0.093562 -0.51718 -0.36123 0.60513 0.66266 0.30449 0.44857 -0.092027 -0.069213 -0.1058 0.10899 0.1033 0.34372 -0.04186 -1.9213 -0.33361 0.16119 0.084769 -0.28993 3.5443 0.26021 -0.023478 -0.39401 0.036919 -0.32256 -0.15009 0.48977 0.16311 -0.44252 -0.44062 -0.043155 0.23357 0.2823 -0.4349 0.40295 -0.47853 -0.332 -0.3991 0.13063
made 0.14205 0.0046063 -0.40052 0.076568 0.27081 0.61955 -0.84904 -0.30413 -0.58594 0.092473 -0.034618 0.45746 -0.42953 -0.044566 0.38408 -0.096784 -0.048204 -0.26517 -0.50191 -0.51384 0.19384 0.15066 0.43169 -0.86243 0.059659 -1.5264 -0.11795 0.1915 0.10062 -0.49343 3.388 0.047361 -0.2738 0.03688 0.43812 0.28114 0.40339 0.87699 -0.40557 -0.15664 0.085523 0.36692 -0.081265 -0.32905 -0.069627 0.10247 -0.61574 0.27769 0.033304 -0.24918
like 0.36808 0.20834 -0.22319 0.046283 0.20098 0.27515 -0.77127 -0.76804 -0.34861 0.5062 -0.24401 0.71775 -0.33348 0.37554 0.44756 0.36698 0.43533 0.4757 -0.056113 -0.93531 -0.27591 0.3161 0.22116 0.36304 0.10757 -1.7638 -1.2624 0.30284 0.56286 -1.0214 3.2353 0.48483 0.027953 0.036082 -0.078554 0.18761 -0.52573 0.0372 0.27579 -0.07736 -0.27955 0.79752 0.0016028 0.45479 0.88382 0.43893 -0.19263 -0.67236 -0.39709 0.25183
between 0.7503 0.71623 -0.27033 0.20059 -0.17008 0.68568 -0.061672 -0.054638 -0.86404 -0.61395 -0.11047 -0.38827 -0.65705 -0.51993 -0.11222 0.35218 -0.062404 -0.1367 -0.74921 0.29496 0.646 -0.045973 0.67607 0.43915 -0.11932 -1.2565 0.61853 -0.057893 0.11771 0.45169 3.8217 0.19942 -0.3056 -0.3612 0.16007 -0.62274 -0.83083 -0.032579 -0.4838 0.60626 -0.22847 -0.073889 0.052593 0.039626 -0.72325 0.11038 0.35692 -0.26172 -0.67303 -0.87038
did 0.042523 -0.21172 0.044739 -0.19248 0.26224 0.0043991 -0.88195 0.55184 -0.64939 -0.17511 0.1225 0.68355 -0.82141 -0.35839 0.96636 0.54873 0.065911 -0.4903 -0.26302 -0.66737 -0.2046 0.37963 0.52251 -0.26308 0.40828 -2.2215 -0.5848 -0.26058 0.30964 -0.95756 3.0448 0.37217 -0.68005 -0.60398 0.13016 -0.29502 0.51808 0.29607 0.19795 -0.15422 -0.22707 0.16382 -0.092931 0.2265 0.036166 -0.0059486 -0.34131 0.12102 -0.23999 0.46656
just 0.17698 0.065221 0.28548 -0.4243 0.7499 -0.14892 -0.66786 0.11788 -0.45411 0.1854 -0.65107 -0.43436 -0.601 -0.11323 0.85217 0.25333 0.31332 0.059113 -0.88746 -0.46554 -0.30104 0.70689 0.4508 0.14714 0.68951 -1.849 -0.23012 0.67376 1.0314 -0.82298 3.6701 0.62587 -0.17666 0.22468 -0.029079 -0.25751 0.12939 0.44485 0.52806 -0.35906 -0.27806 0.20667 0.076161 0.32197 -0.40589 0.23199 0.20909 -0.29776 0.11035 0.22057
country -0.13531 0.15485 -0.07309 0.034013 -0.054457 -0.20541 -0.60086 -0.22407 0.42615 0.0418 0.1217 -0.55817 -0.08953 0.0089426 0.59164 0.34329 0.64798 0.30052 0.48494 0.16524 -0.073664 0.31182 -0.083803 0.27026 0.10724 -1.7704 -0.36235 -0.15811 0.060038 0.67873 4.0124 0.43091 -0.26325 0.0561 -0.40052 -0.088487 -0.55339 -0.17892 -0.57372 -0.19628 -1.1624 0.12145 0.55842 -0.6194 -0.20974 0.49895 -1.0743 -0.028168 -0.18904 -0.6769
under 0.13721 -0.295 -0.05916 -0.59235 0.02301 0.21884 -0.34254 -0.70213 -0.55748 -0.78537 0.46417 0.44733 -0.74178 -0.46287 0.42665 0.39795 -0.21767 0.02626 -0.31353 0.07852 0.28495 0.11671 0.29981 -0.91376 -0.47744 -1.6573 0.0074029 -0.11224 -0.10604 0.29894 3.4634 -0.29341 -0.76777 -0.3012 -0.0037192 0.23122 0.47334 0.13078 0.050225 0.19911 -0.50179 -0.0034197 0.38654 0.057375 -1.0157 -0.33991 -0.6197 -0.59706 -0.11377 -0.64195
such 0.61012 0.33512 -0.53499 0.36139 -0.39866 0.70627 -0.18699 -0.77246 -0.034846 0.66066 0.08203 0.79279 0.05707 -0.18946 0.17522 0.13938 0.31923 -0.075718 0.12428 -1.063 0.28938 -0.29671 0.11209 0.073609 -0.22206 -1.255 -1.0307 -0.46799 0.2385 -0.21157 3.8345 0.16838 0.018882 -0.9855 0.096963 0.26432 -0.18384 -0.22391 -0.53277 0.41996 -0.11031 0.42182 0.27344 0.496 0.79203 0.24127 -0.41725 0.28288 -0.28283 0.084747
then 0.19565 -0.32773 0.061642 -0.61557 0.55709 0.1319 -0.64021 0.59467 -0.56031 -0.39703 0.28233 0.40593 -0.76741 -0.12291 0.31465 0.28005 -0.16861 -0.1576 -0.81441 -0.22847 0.3412 0.13389 0.79958 0.10831 0.29309 -2.0116 0.44809 0.22424 0.28911 -0.7811 3.3622 -0.050498 -0.5573 -0.2944 0.072648 0.058602 0.22786 0.67369 0.48985 -0.10922 0.15652 0.13199 -0.56275 -0.072733 -0.58805 0.044076 0.25782 -1.0728 -0.088545 -0.31418
any 0.51292 0.09032 0.023552 0.21438 0.70226 0.5623 0.11839 0.25641 -0.039706 0.095389 -0.015477 0.37808 -0.1616 -0.18322 0.80726 0.521 0.40167 -0.51684 -0.056347 -0.95212 0.042801 -0.082442 0.23867 -0.10777 0.12598 -2.033 -0.48642 -0.018917 1.0034 -0.16553 3.8562 0.10825 -0.81231 -0.82064 0.098151 -0.025282 0.27985 -0.28044 -0.40594 -0.14185 0.0028418 -0.046259 0.093178 0.9383 -0.039413 -0.35659 -0.33987 1.1585 0.29796 0.075048
through 0.64925 0.068384 0.031703 -0.51479 -0.52809 -0.068008 -0.80786 -0.080712 0.52543 -0.020451 -0.26222 -0.077934 -0.54208 -0.0044965 -0.18831 -0.058391 -0.10829 -0.32967 -0.37944 -0.30563 0.74476 0.18284 0.31539 0.18516 0.32603 -1.4627 0.29471 0.2981 0.3911 -0.71861 3.9504 0.32215 -0.11705 -0.57798 -0.35637 0.29018 -0.41629 0.26993 0.23642 0.25035 -0.074786 -0.1193 -0.12565 0.25444 -0.60505 -0.12684 0.70263 -0.81355 -0.29753 -0.80957
being 0.59049 -0.66076 -0.02551 -0.66217 0.3834 0.31517 -0.82654 0.14879 -0.36427 0.015319 0.51745 0.2739 -0.42352 -0.1069 0.65642 0.13723 -0.011125 0.38913 -0.54748 -0.15923 -0.26029 0.37735 0.83593 0.16307 0.013573 -2.0174 -0.15106 0.49917 0.1841 -0.17101 3.5601 -0.35118 0.24638 -0.94568 0.22149 0.22784 0.56643 0.41457 -0.58431 -0.39573 -0.26413 -0.18254 0.00017507 0.47701 -0.15756 -0.43371 -1.0655 -0.41736 0.086398 -0.38974
down -0.1981 -0.70847 0.85857 -0.48108 0.51562 -0.28924 -0.64311 -0.41966 -0.68718 -0.12307 -0.44594 -0.35226 -0.84826 0.12962 0.20005 0.48916 -0.20257 -0.53341 -0.96196 -0.67681 0.69808 0.50599 0.24012 -0.72813 0.11396 -1.8256 0.8098 0.65007 0.73111 -0.50325 3.5865 0.30906 -0.14279 0.6753 -0.074059 -0.45274 -0.28001 -0.20383 0.61044 -0.24875 -0.47409 0.25916 0.41522 0.15245 0.093191 -0.091906 0.40082 -0.90268 0.30191 -0.89862
back 0.0046218 -0.25678 0.3532 -0.82697 0.099033 -0.27524 -1.2297 0.37345 -0.44635 -0.36967 -0.12421 0.20837 -1.1801 0.045587 0.47457 0.40557 0.046003 -0.62809 -0.70816 -0.42283 -0.24011 0.44871 0.14759 -0.17298 0.31948 -2.0483 0.43036 0.44567 0.52804 -0.72942 3.5192 0.72008 -0.19861 0.42855 0.029422 0.15914 -0.16062 0.3479 0.35462 -0.53138 -0.28746 0.35596 -0.083996 -0.0064132 -0.32994 0.055304 0.50614 -0.80837 -0.33017 -0.62638
police 0.49725 -1.1949 0.37137 -0.081662 0.69114 -0.69982 -0.25723 0.5943 0.059978 -1.499 -0.07122 -1.0053 -0.73845 -0.40988 0.43074 -0.46757 -0.36498 0.29674 -0.62775 -0.41573 0.28614 1.1718 -0.21516 0.62029 -0.85242 -2.4672 0.14414 0.066415 -0.37916 -0.65373 2.7482 -0.28856 -0.45409 -1.354 0.58534 1.0112 0.67715 -1.1708 0.36475 1.1886 -0.28727 1.2292 0.58489 -0.20625 0.90859 -0.88349 -0.85085 0.12378 0.85397 -0.65035
well 0.27691 0.28745 -0.29935 -0.19964 0.12956 0.15555 -0.64522 -0.3409 -0.11833 0.15798 0.13969 0.24872 -0.15901 -0.033439 0.11895 0.076535 0.45263 0.26494 -0.19157 -0.56768 0.029286 0.21745 0.43406 0.14981 0.075774 -1.4453 -0.58394 -0.046063 0.066214 -0.26417 3.965 0.25196 0.24855 -0.50524 0.25806 0.28683 -0.17994 0.62885 -0.1204 -0.042143 -0.044911 0.18561 0.16266 -0.0026127 0.13083 0.20179 -0.29667 -0.09482 -0.2125 0.022074
week 0.25009 -0.033956 0.094114 0.32336 -0.01654 -0.63211 -1.2778 0.32265 -0.14109 -0.29001 -0.73881 -1.0599 -0.69152 0.066963 1.4545 0.24474 -0.7986 -0.84672 -0.80999 -0.10354 0.59366 0.47797 0.33725 -0.42843 -0.34131 -1.8441 0.30726 0.29596 -0.40516 0.34157 3.4163 0.4477 -0.43271 0.12544 0.055593 -0.57397 0.18095 0.092258 0.072602 -0.48368 -0.71812 0.39523 -0.12913 -0.2552 0.41018 0.1954 -0.12005 0.8398 -0.29115 0.078721
still 0.47689 -0.076447 0.36768 -0.3947 0.47169 -0.038062 -0.78328 0.14814 -0.30044 -0.072707 -0.030916 -0.16829 -0.53569 -0.16432 0.78732 0.52064 0.15539 -0.0074076 -0.0546 -0.6647 -0.51966 0.40417 0.24546 -0.0038311 0.35098 -1.8132 -0.51917 0.50432 0.49551 -0.085036 3.5993 0.29352 0.26488 -0.36079 -0.013431 -0.11533 -0.1946 0.31915 0.014437 -0.42448 -0.56024 0.023142 0.31161 0.44714 0.039094 0.23879 -0.45699 -0.10113 -0.38907 -0.37151
both 0.25707 0.25305 -0.082529 0.12036 0.19351 0.66386 -0.45209 -0.084674 -0.57591 -0.0055412 0.35637 0.1987 -0.68307 -0.15141 -0.093202 0.11426 0.27492 -0.23495 -0.21676 -0.61231 -0.1915 0.19664 0.51456 0.16767 0.033627 -1.4032 -0.077227 -0.32463 -0.32382 -0.23254 3.6787 0.34334 0.16075 -0.75931 0.36933 -0.10338 -0.06278 0.47076 -0.64781 -0.055166 -0.096726 0.11986 0.14052 0.018292 -0.05436 0.12612 -0.40612 -0.095894 -0.35745 -0.17943
even 0.38336 -0.095871 0.12229 -0.51625 0.3491 0.1705 -0.55374 -0.0017357 -0.47808 0.43859 -0.25184 0.16347 -0.22387 -0.017963 0.80635 0.42586 0.14927 -0.19596 -0.097068 -0.97429 -0.32088 0.15314 0.26854 -0.011203 0.38486 -2.0684 -0.72715 0.31925 0.78713 -0.22962 3.5621 0.53464 -0.013249 -0.53812 -0.017443 -0.14833 -0.20759 0.39231 -0.30361 -0.44828 -0.48433 0.39363 0.1097 0.72701 0.10325 0.060643 -0.26806 -0.056359 -0.34692 0.13303
part 0.70504 0.18255 -0.75188 0.0039397 -0.053423 0.29625 -0.42377 -0.013111 0.16573 -0.43932 0.07506 -0.16262 -0.26635 -0.40453 -0.098246 0.14215 0.34546 0.3634 -0.40502 0.3591 0.37462 -0.33984 -0.24689 0.33546 -0.36193 -1.7587 -0.72343 0.14269 -0.099759 -0.16071 3.6203 -0.25283 -0.24719 -0.53168 -0.050993 0.017225 -0.12073 -0.021644 -0.36179 -0.086212 -0.32108 -0.16623 -0.2044 -0.46124 -0.85036 0.16189 -0.14281 -0.13137 -0.41208 -0.092147
told 0.37633 0.058652 0.17005 0.46863 0.95799 -0.82027 -0.83683 0.53315 -0.22664 -1.1505 0.11026 0.22662 -0.8068 0.12202 0.91294 0.39002 -0.0051597 0.11369 0.45456 -0.11737 -0.074381 1.5088 0.46655 0.04601 0.68558 -2.2872 -0.081728 0.5556 -1.1222 -0.042912 2.5651 -0.12145 -0.42656 -0.11731 -0.51801 -0.51683 0.58125 -0.20616 0.67072 0.8228 0.21314 1.3662 -0.18691 -0.78497 0.73258 -0.51869 -1.5369 0.84913 0.51594 0.87639
those 0.65102 0.0025814 0.45799 -0.48064 0.38459 0.56754 -0.44011 -0.44394 -0.53883 0.17027 -0.27204 0.10995 -0.06457 -0.27384 0.8027 0.23735 0.073204 -0.41719 0.20823 -0.97234 -0.13032 0.3294 0.85485 -0.15885 -0.036028 -1.4057 -0.8052 -0.36856 0.52335 -0.64427 3.819 0.92642 0.034423 -0.85155 0.39647 0.028646 -0.13414 -0.057982 -0.37909 0.099795 -0.78039 0.11373 0.76026 0.90107 0.09539 -0.046433 -0.7663 0.21574 -0.3297 -0.18945
end -0.04116 0.22243 -0.11458 -0.33628 0.038872 -0.066803 -0.58309 -0.19971 -0.51087 -0.29037 -0.49177 -0.13533 -1.0737 -0.4156 0.81837 0.47902 0.078869 -0.60318 -0.5732 0.065613 0.21122 -0.20912 -0.27305 -0.21332 -0.077237 -1.4695 0.46413 0.1222 0.80235 0.25796 3.7452 0.14293 -0.51556 0.34662 0.12782 -0.21896 0.15115 -0.2969 -0.37945 -0.41931 -0.74006 -0.10499 -0.31756 -0.23893 -0.40606 0.24247 0.55832 -0.1801 -0.37332 -0.18039
former -0.53526 0.54543 0.11158 0.59775 0.30465 0.19476 -1.2582 0.32169 -0.89948 -0.94368 -0.0071382 0.30246 -0.96258 0.21507 0.12341 -0.24146 0.13193 0.70984 0.053988 0.47934 -0.48787 0.40946 -0.50779 0.12712 -1.2259 -2.6958 0.39519 -0.4661 -1.1562 0.6446 2.3831 -0.54043 -0.5875 -0.59775 0.21628 0.36757 -0.47202 0.11992 0.2603 -0.5585 -0.17629 1.0493 -0.36595 -0.33532 0.093984 -0.070277 -1.4673 -0.46506 -0.22689 -0.12854
these 1.0074 0.18912 -0.11732 -0.36526 -0.051616 0.54116 -0.15308 -0.52727 -0.48022 -0.0072622 -0.098221 0.7238 0.062491 -0.12209 0.24678 0.20053 0.40764 -0.33904 0.046177 -1.1647 0.11035 -0.40562 0.97288 0.13208 0.17939 -0.85647 -1.2987 -0.44078 0.53287 -0.5479 4.1549 0.23097 0.15859 -1.3329 0.33413 0.46252 0.012145 -0.16786 -0.70963 0.38012 -0.47236 -0.30736 0.53575 0.95753 0.27464 0.16299 -0.22378 0.12912 -0.3995 -0.25768
make 0.55494 -0.048714 0.07152 -0.071538 0.4115 0.18034 -0.48436 -0.03592 -0.15302 0.43587 -0.30612 0.40199 -0.01432 0.15249 0.55544 0.44785 0.75881 -0.20428 0.25571 -1.0264 0.12219 -0.03706 0.14761 -0.087048 0.27103 -1.6697 -0.40418 -0.22598 0.7748 -0.85116 3.796 0.83318 -0.78647 -0.037684 0.22303 0.071425 0.0067017 0.57189 -0.21843 -0.5835 -0.21028 0.1189 0.30614 0.32978 0.11962 0.30695 -0.18082 0.4535 -0.086564 0.40418
work 0.51359 0.19695 -0.51944 -0.86218 0.015494 0.10973 -0.80293 -0.33361 -0.00016119 0.010189 0.046734 0.46751 -0.47475 0.11038 0.39327 -0.43652 0.39984 0.27109 0.4265 -0.6064 0.81145 0.4563 -0.12726 -0.22474 0.64071 -1.2767 -0.72231 -0.6959 0.028045 -0.23072 3.7996 -0.12625 -0.47967 -0.99972 -0.21976 0.50565 0.025953 0.80514 0.19929 0.28796 -0.15915 -0.30438 0.16025 -0.1829 -0.038563 -0.17619 0.027041 0.046842 -0.62897 0.35726
our 0.3466 0.40689 -0.079036 -0.57072 1.1977 -0.51464 -0.2388 -0.034331 0.57132 -0.27414 0.073571 0.75262 -0.7283 0.071427 -0.053052 0.40254 0.46029 -0.034256 0.85873 -0.83386 -0.25568 0.64828 0.0048025 -0.33206 0.64316 -1.8139 -1.1584 -0.132 1.1031 -0.37694 3.9004 1.4353 -0.54368 -0.55533 -0.4973 0.12035 -0.44885 -0.10704 -0.18783 -0.21098 -0.46421 -0.69106 0.17528 0.38369 -0.011065 0.33085 -0.37936 0.31382 -0.18248 0.10831
home 0.23302 0.45885 0.26602 0.038204 0.56694 -0.51194 -1.7831 0.43072 0.0013246 0.017852 -0.51549 -0.54466 -0.25115 -0.37632 0.40969 0.070356 -0.2612 -0.0027769 -0.51361 0.29828 0.14496 0.53748 -0.62443 0.41379 -0.22006 -1.6277 0.29026 -0.01853 0.51004 -0.61231 3.238 0.74873 0.18835 0.022167 0.57824 0.52022 0.15287 0.41601 0.5526 -0.40373 -0.18057 0.20914 -0.23873 0.11284 -0.007494 0.57918 -0.43641 -0.80904 0.2041 -0.19532
old -0.48533 0.98378 -0.29031 -0.33076 0.7467 0.59922 -1.4261 0.084897 -0.25334 -0.10804 -0.073621 -0.24042 -0.60009 0.27719 0.61283 0.077262 -0.47997 0.50699 0.1302 0.66519 -0.84582 0.94113 -1.0953 0.40358 0.16514 -2.5206 -0.16821 0.20541 0.20474 0.07438 2.7209 -0.70897 -0.049539 0.96305 0.72107 0.55294 -0.13857 0.59796 0.58361 -0.42162 -0.21735 0.36125 0.18277 0.33058 0.58751 0.1003 -0.16219 -0.95943 0.03837 -0.73304
long 0.46955 0.82963 -0.13828 -0.45398 -0.075682 0.45397 -0.37753 -0.31824 0.04492 -0.23272 -0.65296 0.0076419 -0.52617 0.29746 0.23553 0.19954 0.17268 -0.027087 -0.30702 -0.27463 -0.50451 0.06611 0.048848 -0.3727 0.28044 -2.012 0.32445 0.696 0.33016 0.052136 3.7978 0.016551 -0.029049 0.40461 -0.067641 -0.3214 -0.42906 0.34667 -0.40094 -0.26477 -0.54929 0.20108 0.12476 0.53417 -0.10315 -0.57693 0.26055 -0.3884 -0.81348 -0.086581
way 0.53662 -0.01189 -0.24985 -0.30536 0.33947 -0.10958 -0.44209 0.0099388 -0.1815 0.26726 -0.4314 0.30656 -0.68874 0.044483 0.11504 0.35505 0.72325 -0.2174 -0.046881 -0.63777 -0.12445 0.45086 -0.10405 0.16283 0.81381 -1.9463 -0.39676 0.29121 0.90593 -0.77543 3.6326 0.49683 -0.50868 -0.40184 0.0088379 -0.23548 -0.19416 0.43335 -0.17993 -0.15557 -0.34559 0.01032 0.04439 0.33125 -0.15722 0.28526 0.14313 -0.23625 0.063342 0.17774
much 0.36999 0.082841 0.16883 -0.50223 0.37935 0.13343 -0.32527 -0.17964 -0.40393 0.58149 -0.14505 0.1399 -0.1566 -0.60951 0.62075 0.5596 0.35677 0.25654 -0.33583 -0.82497 -0.11897 0.21829 0.27755 -0.38194 0.54374 -1.7705 -0.74366 0.40402 0.88709 -0.021368 3.7891 0.39953 0.51627 -0.48584 -0.052367 -0.28135 -0.60422 0.46096 0.11491 -0.49699 -0.34498 0.38645 0.14052 0.43843 -0.33583 0.13546 -0.12158 0.0053184 -0.50853 0.24986
here 0.14094 0.68201 -0.50406 0.38316 0.63427 -1.1851 -0.46932 0.28639 -0.43216 -0.55399 -0.44542 -0.37547 -0.3705 -0.10563 1.1606 0.43494 0.38033 0.030184 -0.24547 -0.43203 -0.031259 0.50174 0.27714 0.12505 0.82877 -1.7273 -0.3644 0.30344 -0.17817 -0.012443 3.4775 0.51806 -0.46432 -0.13342 -0.22624 -0.24472 0.062998 0.50663 -0.31938 0.079926 -0.54474 0.19452 0.12387 -0.055269 0.65444 0.43451 -0.42384 0.11082 0.11009 -0.27094
should 0.35145 -0.24155 0.0054776 -0.43396 0.498 -0.15624 0.085152 0.037574 -0.08182 -0.11312 0.30311 0.71108 -0.18012 -0.14026 0.72316 1.1194 0.54095 -0.44946 0.64814 -0.86225 -0.088763 -0.055229 0.49666 -0.14049 0.20234 -2.1223 -0.061711 -0.18884 0.15737 -0.52156 3.7028 0.73726 -1.0739 -0.63594 -0.18347 -0.46252 0.36886 0.19455 -0.068823 -0.32577 -0.46426 -0.096529 0.41884 0.53723 -0.065486 0.14923 -0.48415 0.46327 -0.029425 0.34362
take 0.62257 0.071858 0.024343 -0.12574 0.31062 -0.2258 -0.34277 0.50858 -0.13264 -0.068181 -0.21331 0.27151 -0.44914 0.076563 0.54888 0.58235 0.46806 -0.3486 -0.14855 -0.81118 0.26717 0.24443 0.016739 0.04569 0.23783 -1.9723 -0.067601 -0.50336 0.21409 -0.48434 3.5853 1.1371 -1.1428 -0.058785 0.2457 -0.16272 0.17293 0.18225 0.0188 -0.52325 -0.34459 0.035117 0.27834 0.18419 0.23106 0.13612 0.021502 0.18111 0.038953 0.23854
very 0.57049 -0.0077854 -0.70766 -0.31785 0.89493 -0.016128 -0.067149 0.15765 -0.49832 0.25845 0.10943 0.36728 -0.14843 0.063286 0.20832 0.4592 0.71781 0.22772 -0.0015349 -0.93093 -0.80048 0.46714 0.41571 0.17572 1.0876 -1.6116 -0.70943 0.83772 0.67081 0.18139 3.9899 -0.1027 0.439 -0.67926 0.11861 -0.20182 -0.081603 0.90739 -0.52258 -0.48426 -0.31326 0.10325 0.13036 0.35115 0.37593 0.064388 -0.2259 0.079125 0.12573 0.83939
my -0.27279 0.77515 -0.10181 -0.9166 0.90477 -0.070501 -0.47569 0.44608 0.1697 0.072352 -0.16306 0.86852 -0.76634 -0.016103 0.78492 0.2952 -0.74859 0.2099 0.65537 -0.62334 -0.43711 1.1854 0.47519 0.0093866 1.1377 -2.4394 -1.5619 0.49001 1.0985 -0.97371 3.4628 1.0408 -0.65138 0.57189 -0.12523 0.26705 0.16373 0.41105 0.7509 -0.77923 0.03638 -0.28609 -0.72365 0.63511 0.089441 -0.30133 0.36518 -0.73367 0.040383 0.26657
how 0.68938 -0.10644 0.17083 -0.37583 0.7517 0.00078149 -0.53102 -0.19903 -0.14419 0.12748 -0.28038 0.70723 -0.541 0.19625 0.96635 0.60519 0.40918 -0.031612 0.539 -0.87086 -0.20912 0.56853 0.65983 0.14583 1.0112 -2.0736 -1.1242 0.00059662 0.70332 -0.82608 3.4445 0.32984 -0.35324 -1.0335 -0.14753 -0.14874 -0.41246 0.33489 0.19841 -0.25478 -0.47193 0.066701 0.32777 0.68781 0.36428 0.21522 0.16494 0.41761 -0.22504 0.61412
say 0.538 -0.32312 0.68037 -0.45188 0.17821 -0.22154 -0.6907 0.0012973 -0.17651 0.37021 -0.30653 -0.010422 -0.22567 -0.14526 0.91416 0.62186 0.5173 -0.1694 0.47089 -0.69872 -0.46922 0.51316 0.33302 0.14935 0.20493 -2.5976 -1.1134 -0.047981 0.21307 -0.52961 3.0675 0.40748 -0.59142 -0.41317 -0.01431 -0.74191 -0.26384 -0.38352 0.25446 0.021919 -0.80087 0.47714 0.58133 0.73646 0.65852 -0.11711 -0.77649 0.70693 -0.17722 0.2904
around 0.77604 0.22584 0.45044 -0.70814 0.14959 -0.76201 -0.59769 -0.37123 -0.49107 -0.81828 -0.61185 -0.96962 -0.02998 -0.26391 0.69513 0.38294 0.067117 0.42452 -1.2652 -0.54603 0.65743 0.30119 0.63752 0.40919 0.29723 -1.1203 0.1117 0.49074 0.43661 -0.40743 3.6976 0.3907 0.10636 -0.035762 -0.4579 0.19091 -0.38336 0.060834 0.20348 0.60765 -0.19867 0.21351 0.31352 0.472 -0.23803 -0.12381 0.43955 -0.97437 -0.78565 -0.8177
until 0.20025 -0.32821 -0.40859 -0.79438 -0.016211 -0.15642 -0.87742 0.79077 -0.72598 -0.84135 0.32721 0.16083 -0.39978 -0.16564 0.97777 0.75359 -0.58771 -0.18122 -0.86418 0.21439 0.93586 -0.27561 1.1309 0.13037 -0.26363 -1.5425 0.44697 0.11369 0.81079 0.50902 3.5276 -0.40359 -1.1329 -0.31116 0.10513 -0.11283 0.36168 0.73762 0.38905 -0.45252 -0.28996 -0.6103 -0.41276 -0.20891 -0.92793 0.52376 0.075897 -0.81873 -0.46464 -0.09077
however 0.43833 -0.15784 -0.12393 -0.11901 0.14659 0.35156 -0.45865 0.18337 -0.63247 -0.11755 0.59893 0.346 -0.46169 -0.58537 0.41869 0.53485 -0.056069 -0.42462 -0.45327 -0.32637 -0.16922 -0.31311 0.44623 -0.13493 0.36838 -1.5683 -0.30225 -0.093721 -0.04807 0.37704 3.4781 -0.27603 0.064955 -0.81474 0.1966 -0.29855 0.31998 0.24164 -0.5128 -0.10399 -0.11611 0.025575 -0.29849 -0.0033247 -0.20456 -0.079099 -0.38462 0.12374 0.14642 -0.15032
family 1.1636 0.90386 -0.74277 0.49272 1.88 0.9285 -1.0429 0.01343 -0.51903 -0.68762 0.0083396 0.50754 0.51792 -0.75577 1.0241 0.1761 -0.91889 0.21455 0.19232 0.19562 0.0044282 0.40701 -0.3812 0.51286 0.14278 -1.4652 -0.55194 -0.8362 0.41877 0.40793 2.5335 -0.20787 0.088761 -0.10973 0.52074 0.026259 -0.65515 -0.1425 0.44071 -0.047796 -0.23276 0.17212 -0.16844 0.60122 0.47156 0.11336 -0.96031 -1.3412 -0.021467 0.049217
left 0.46783 -0.035872 0.41065 -0.4438 0.58944 0.22964 -1.1107 0.87497 -0.72342 -0.91589 -0.17989 -0.38281 -1.0384 0.47202 0.23037 -0.039563 -0.079483 -0.50856 -0.72968 0.19254 -0.5322 0.65468 0.25873 -0.12893 0.21562 -1.4202 0.63648 0.52826 0.28329 -0.073296 3.2336 0.22421 0.031033 0.015244 -0.28903 0.54683 0.01121 0.21479 0.96489 0.10511 -0.20664 0.21379 -0.45599 0.23589 -0.27467 0.21216 -0.097545 -0.51355 -0.11455 -0.84802
good -0.35586 0.5213 -0.6107 -0.30131 0.94862 -0.31539 -0.59831 0.12188 -0.031943 0.55695 -0.10621 0.63399 -0.4734 -0.075895 0.38247 0.081569 0.82214 0.2222 -0.0083764 -0.7662 -0.56253 0.61759 0.20292 -0.048598 0.87815 -1.6549 -0.77418 0.15435 0.94823 -0.3952 3.7302 0.82855 -0.14104 0.016395 0.21115 -0.036085 -0.15587 0.86583 0.26309 -0.71015 -0.03677 0.0018282 -0.17704 0.27032 0.11026 0.14133 -0.057322 0.27207 0.31305 0.92771
six 0.29281 0.31322 0.58541 0.044983 0.38666 0.60109 -0.87665 0.09606 -0.19744 -0.49457 -0.41672 -0.75916 -0.6508 0.52929 0.6589 -0.79883 -0.1297 -0.28493 -1.2256 -0.22497 -0.011196 0.2396 0.77621 -0.14746 -0.62975 -0.93334 0.55396 -0.54297 -0.3178 -0.30144 3.8218 0.45976 -0.07032 0.44685 1.1156 0.41392 0.50005 0.19087 -0.14513 0.046651 -0.7588 -0.15138 0.56228 0.16382 -0.22547 0.11267 -0.32517 0.061608 -0.37181 -0.66733
each 0.42553 0.56703 0.35364 0.05116 1.3488 0.6713 -0.073751 -0.093801 0.065372 -0.40627 -0.20479 -0.1505 0.13177 0.21507 0.48418 -0.40727 -0.11551 0.072009 -0.53588 -1.1379 0.20057 -0.32165 0.79151 0.34662 -0.044049 -0.962 0.17347 -0.075961 -0.036888 -0.92744 4.0039 0.66211 -0.11491 -0.051017 0.27514 0.28659 0.26112 0.28538 -0.090535 -0.10771 0.24407 -0.056039 -0.085993 0.46912 -0.4861 -0.19245 0.35422 -0.10982 -0.48562 -0.18198
official -0.21603 0.33854 -0.045154 0.7077 0.52752 -0.77189 -0.37859 0.01496 0.44067 -1.0734 0.25733 -0.27296 -0.26133 0.077519 0.89039 -0.18416 -0.73166 -0.11566 0.28548 0.30915 0.26044 0.11257 0.25141 -0.28005 -0.092009 -2.1169 -0.31785 0.13818 -1.063 0.40867 3.2536 -0.37485 -0.47284 -0.21328 -0.26352 0.1336 0.61055 -0.5932 -0.55243 0.4227 -0.12348 0.39028 -0.088546 -0.75717 0.21848 -0.60385 -0.9513 1.5525 0.65175 -0.43781
go 0.14828 0.17761 0.42346 -0.31489 0.32273 -0.72413 -0.78955 0.49214 -0.20693 -0.00055088 -0.47877 0.28853 -0.57376 0.27217 1.1129 0.57808 0.69321 -0.28652 -0.054545 -0.61826 0.17227 0.29263 0.38184 0.62186 0.55461 -1.7411 -0.28802 -0.1714 0.74743 -1.0135 3.3596 1.137 -1.0028 0.17685 -0.0061795 -0.063491 0.19077 0.044046 0.38228 -0.41607 -0.50359 -0.083803 0.17508 0.4042 0.077324 0.17415 0.12541 -0.2182 0.12971 0.32953
among 0.26623 0.46052 0.16411 -0.15575 0.4599 0.57428 -0.71595 -0.31793 -0.38352 0.14023 -0.1244 -0.43071 0.0036842 -0.078981 0.22799 -0.4386 0.14211 -0.362 -0.092919 -0.68458 -0.26686 0.051365 0.48439 0.24969 -0.26238 -1.1964 -0.80402 -0.87705 -0.5582 0.44329 3.3812 0.8488 0.54091 -0.87004 0.12037 -0.34844 -1.0354 -0.18493 -0.34795 0.1529 -0.75519 0.34175 0.38023 0.60987 0.71856 0.28481 -0.72253 0.05035 -0.52179 -0.62385
times -0.39921 0.63609 0.3401 -0.14305 -0.11966 -0.4832 -0.87891 -0.19646 -0.42128 -0.23169 -0.50591 -0.093337 -0.30098 -0.14887 1.2242 -0.11392 -0.59522 -0.48003 -0.98778 0.033121 0.17605 0.2695 0.96337 0.25842 0.44454 -1.4805 -0.47694 0.040743 0.15592 0.23329 3.3342 -0.1008 0.85134 -0.29978 -0.14765 -0.37207 0.093149 0.30571 -0.036654 0.12316 0.012305 0.43128 0.4405 0.58298 -0.39951 0.21648 -0.13706 -0.01493 -0.19099 0.24173
took 0.10581 -0.12607 -0.15304 -0.11204 0.17447 0.11011 -0.87909 0.5273 -0.50619 -0.41388 -0.056028 -0.17814 -1.0869 -0.25415 0.43534 -0.34265 -0.27734 -0.35973 -1.1806 -0.15128 0.24127 0.50711 0.17117 -0.47705 -0.023802 -1.7512 0.099813 -0.43687 -0.19324 -0.037552 2.8149 0.41473 -0.48028 -0.014933 0.3202 0.085309 0.19205 0.53356 0.018675 0.077745 -0.25481 0.24782 -0.26002 -0.2175 0.043965 -0.090949 -0.24377 -0.58687 -0.048828 -0.38006
right -0.31905 -0.09507 -0.049458 -0.45461 0.81447 0.5573 -0.37148 0.22142 -0.18506 -0.058731 0.19556 0.25934 -0.92544 0.60346 -0.11877 0.33422 0.5861 -0.93036 0.057848 -0.3782 -1.1279 0.11801 -0.26057 0.043562 0.25741 -2.2502 0.14761 0.43313 0.6941 -0.94411 3.5944 0.47921 -0.61145 0.16474 -0.68397 -0.091051 0.39399 0.1769 0.33553 -0.13054 0.12659 0.26288 -0.47432 0.79129 -0.75714 -0.117 -0.093022 -0.23004 0.081364 -0.035147
see 0.31369 0.73732 0.27501 -0.51882 0.39102 -0.84733 -0.22596 -0.3745 -0.56751 -0.10444 -0.07865 0.50972 -0.44274 0.038197 0.759 0.98204 0.26128 -0.62279 -0.064897 -0.52966 -0.30045 -0.18522 0.28722 0.36005 0.40381 -1.7122 -1.2329 0.12507 0.46661 -0.36031 3.1632 0.56363 -0.46641 -0.48497 -0.10749 -0.47382 0.10153 -0.34646 0.28584 -0.20812 -0.44613 0.27223 0.2287 0.30833 0.1775 0.3363 0.38842 -0.25642 0.1355 0.24894
best -0.91572 0.60345 -0.31077 0.28433 0.5461 -0.0039229 -0.9464 -0.3021 0.07115 0.82385 -0.16949 0.41054 -0.48622 0.61483 0.70468 -0.60032 0.89382 0.11781 -0.77831 -0.52206 -0.10077 0.38392 0.27892 0.37202 0.49374 -1.1495 -1.1505 -0.72089 -0.03809 -0.45699 3.3425 0.5666 0.00088944 -0.2003 0.53662 0.28478 -0.083822 0.97535 -0.35985 -1.0818 -0.051555 0.30453 0.0047155 -0.25214 -0.35151 0.26135 0.19998 -0.056032 0.074988 0.76092
own 0.27848 0.079579 -0.10584 -0.38162 0.46071 0.56455 -0.7193 -0.22662 0.12271 0.24965 -0.13608 0.65377 -0.63547 0.010398 0.056358 -0.12872 -0.033681 -0.1146 0.33459 -0.64033 0.41771 0.43189 -0.18595 -0.11354 0.080351 -1.7492 -1.037 -0.37701 0.38214 -0.24203 3.5389 0.46803 -0.41399 -0.5427 -0.21175 0.48245 -0.34914 0.15805 -0.2137 -0.50219 0.24979 -0.22019 -0.28683 0.43822 -0.34483 -0.0015556 -0.27295 -0.096195 -0.071975 -0.22772
came 0.03413 -0.1529 -0.087984 -0.21692 0.29229 -0.072007 -1.0252 0.50136 -0.57328 -0.10813 -0.18637 -0.27509 -0.80462 -0.15915 0.56122 -0.18315 -0.24854 -0.60133 -0.98713 -0.08832 0.033427 0.29101 0.071743 -0.43179 0.2404 -1.9052 -0.1955 0.068605 0.019887 -0.10984 3.0229 0.24949 -0.28191 -0.0098004 0.1651 -0.15466 0.11498 0.25807 -0.029927 -0.21309 -0.35143 0.32539 -0.37124 -0.43276 0.034539 0.14591 -0.15846 -0.13913 -0.071206 -0.46056
think -0.1166 -0.010887 0.044444 -0.39349 0.77743 -0.35689 -0.42073 -0.12338 -0.58818 0.3166 -0.3084 0.4558 -0.83117 0.0231 0.88091 0.71288 1.1223 0.13017 0.017489 -0.82336 -0.65853 0.63098 0.34655 0.25429 0.9928 -2.2232 -1.1191 0.26796 0.71472 -0.76952 3.0569 0.75397 -0.34325 -0.60568 -0.4142 -0.8 -0.17019 0.35416 0.29577 -0.51743 -0.48561 0.0161 0.10267 0.52783 0.32212 0.26552 -0.23728 0.44057 0.0064518 1.2454
show -0.034772 0.64145 -0.37352 0.20804 0.20488 0.10238 -0.90995 -0.57641 0.01479 0.45589 -0.15513 -0.18886 -0.44949 0.39482 1.1552 0.15602 -0.071006 0.056749 -0.66921 -0.43072 0.78598 0.67878 0.54741 0.23433 0.18783 -1.1221 -1.3257 0.45237 0.069194 -0.47916 3.0153 0.8077 0.097056 -1.065 -0.49647 0.051322 0.38649 -0.25782 -0.76952 -0.70461 -0.15052 0.36085 -0.97656 -0.58116 0.081565 -0.41565 -0.16104 -0.23396 -0.28784 0.98359
help 0.88189 -0.07336 0.7171 -0.39262 0.24097 -0.13752 -0.61264 0.32193 0.4621 0.10509 0.11496 0.67571 0.0030444 -0.13679 0.052875 0.47073 0.58707 -0.30466 0.71892 -0.37503 0.1695 0.29757 -0.22053 -0.27809 0.29786 -1.7792 0.14847 -1.1411 0.38335 -0.65889 3.718 1.5077 -0.98004 -0.52614 -0.083689 0.57144 -0.62119 -0.0444 0.68299 -0.64181 -0.45596 -0.011288 0.44917 -0.39481 0.60444 0.25558 -0.072523 0.1774 -0.15583 0.11012
following 0.39504 0.17819 -0.58475 0.053913 -0.3867 0.27252 -0.57967 0.41618 -0.40824 -0.38266 0.19381 -0.2418 -0.86562 -0.41553 0.67027 -0.10716 -0.77751 -0.92425 -0.88645 0.37344 0.47515 -0.38801 0.27171 -0.22085 -0.34034 -1.2374 -0.0046157 -0.27729 -0.26562 0.91297 3.611 -0.16625 -0.20335 -0.59424 0.27874 0.1012 0.52864 -0.25221 -0.5081 -0.14184 -0.43874 -0.25075 -0.61961 -0.3705 -0.26175 0.11614 0.0738 0.2144 0.23219 -0.60179
me -0.14525 0.31265 0.15184 -0.63708 0.63553 -0.50295 -0.23214 0.52892 -0.58629 0.53935 -0.3055 1.0357 -0.77989 -0.19387 1.2215 0.24521 0.26144 0.22439 0.15584 -0.79146 -0.65262 1.3211 0.76618 0.38234 1.4453 -2.2643 -1.1505 0.50373 1.2651 -1.5903 3.0518 0.84118 -0.69543 0.29985 -0.49151 -0.22312 0.59528 -0.076347 0.52358 -0.50134 0.22483 0.01546 -0.088005 0.21282 0.28545 -0.15976 -0.16777 -0.50895 0.14322 1.0118
late 0.21994 -0.014414 -0.24502 -0.31895 -0.32942 -0.48162 -1.5818 0.27079 -1.3613 0.05855 -0.10478 -0.44319 -0.40213 0.05586 0.81842 0.30685 -1.0009 -0.8302 -1.2259 0.54736 0.60423 0.33345 0.02349 -0.58298 0.068311 -1.4961 0.12819 -0.18686 -0.17151 0.90003 3.1905 -0.59917 -0.097557 -0.021908 0.54973 -0.14088 0.18978 0.34743 -0.061865 -0.067381 -0.5258 0.55705 -0.5649 -0.42131 0.24299 0.1408 -0.074287 -0.41503 -0.17553 -0.62826
without 0.28797 -0.021695 -0.083514 -0.44508 0.23014 0.34773 -0.30783 0.40452 0.11753 0.23837 0.17832 0.33098 -0.5012 0.015954 0.68571 0.27638 -0.0050638 -0.59362 0.089435 -0.65281 0.039652 0.41947 0.26661 -0.20939 0.13286 -1.7116 0.2464 0.18052 1.0859 -0.29591 3.6339 0.49238 -0.57634 -0.62998 -0.0017535 0.36101 0.50483 0.25662 -0.12368 -0.059845 0.12656 0.036029 0.21609 0.68576 -0.38499 -0.14619 -0.25034 0.30878 0.070218 -0.21913
history -0.82643 1.0991 -1.1004 0.078016 0.15962 0.18136 -0.93557 -0.19073 0.026341 -0.0845 -0.36609 -0.055015 -0.55747 0.0030452 0.76027 -0.73181 -0.082447 0.069244 -0.64787 0.88449 -0.33906 0.0071404 -0.58207 -0.017598 0.49074 -2.0892 -1.688 -0.63746 0.13742 0.21187 2.8562 -0.43521 0.14753 -0.81421 -0.10177 0.38747 -0.70638 0.67562 -0.095008 -0.16136 -0.64184 -0.31948 0.18765 0.7603 -0.62022 0.77173 0.38342 0.45312 -0.37188 -0.65143
man -0.094386 0.43007 -0.17224 -0.45529 1.6447 0.40335 -0.37263 0.25071 -0.10588 0.10778 -0.10848 0.15181 -0.65396 0.55054 0.59591 -0.46278 0.11847 0.64448 -0.70948 0.23947 -0.82905 1.272 0.033021 0.2935 0.3911 -2.8094 -0.70745 0.4106 0.3894 -0.2913 2.6124 -0.34576 -0.16832 0.25154 0.31216 0.31639 0.12539 -0.012646 0.22297 -0.56585 -0.086264 0.62549 -0.0576 0.29375 0.66005 -0.53115 -0.48233 -0.97925 0.53135 -0.11725
want 0.13627 -0.054478 0.3703 -0.41574 0.60568 -0.42729 -0.50151 0.35923 -0.49154 0.21827 -0.15193 0.52536 -0.24206 0.023875 0.8225 1.089 0.98825 -0.17803 0.77806 -1.0647 -0.28742 0.50458 0.21612 0.65681 0.34295 -2.1084 -0.82557 -0.31966 0.87567 -1.0679 3.3802 1.2084 -1.272 -0.15921 -0.25237 -0.2696 -0.18756 -0.35523 0.084172 -0.56539 -0.24081 0.15926 0.3287 0.54591 0.29897 0.18948 -0.57113 0.17399 -0.19338 0.51921
case 0.70055 -0.24096 -0.3338 0.73864 0.58329 1.0312 0.43613 0.31255 0.45034 0.021358 -0.25161 0.16425 -0.77754 -0.28402 1.3371 0.087065 -0.46043 -0.51812 -0.040278 -0.41397 0.079169 0.11025 0.13596 0.0011033 -0.41198 -2.7956 -0.33211 0.34829 0.037349 -0.23781 2.6114 -1.25 -0.44898 -1.1932 0.29551 -0.54908 0.28867 -0.19626 0.35766 -0.33546 -0.39585 0.49496 0.49102 0.75183 0.16829 -0.058578 -0.053019 0.29408 0.17447 0.15313
few 0.6008 0.18044 0.078339 -0.49145 0.15206 0.070585 -0.99555 0.24069 -0.70344 -0.079897 -0.6171 -0.22407 0.087453 -0.065739 0.61235 -0.0053355 0.10193 -0.24652 -0.31209 -1.0608 0.11929 0.19158 0.73512 0.18325 0.30307 -1.196 -0.67715 0.27333 0.46601 -0.39764 3.7388 0.38117 0.32813 -0.4689 0.39003 0.3538 -0.25716 0.32472 -0.2648 0.011687 -0.42164 0.26935 0.12562 0.71086 0.21745 0.030797 -0.17412 -0.016404 -0.65372 -0.38255
money 0.59784 -0.057026 0.97746 -0.58504 0.37386 0.036373 -0.67548 -0.090134 0.33473 0.4612 -0.70586 0.88032 -0.1532 -0.59041 1.0221 -0.20335 0.80479 0.23907 0.51985 -0.34106 1.1747 -0.44956 0.19799 -0.25137 -0.59436 -2.2372 -0.15901 -0.39896 0.4188 -0.67741 3.3433 0.98779 -0.023405 0.14755 -0.46205 0.34545 -0.77937 0.32595 0.6553 -1.0528 -0.19255 0.22296 0.2518 0.71563 -0.47951 -0.95866 -0.79283 0.20869 0.16084 0.24745
open -0.062761 0.81904 -0.067769 1.0728 -0.48884 -0.53659 -0.39512 0.29684 -0.24994 -0.64616 -0.38994 -1.0181 -0.74659 0.5638 0.62756 0.84303 0.1374 -0.54534 -0.16795 -0.43048 0.18814 0.16537 -0.1674 0.59948 -0.16904 -1.1376 0.36256 0.19763 0.010075 -0.3838 3.5756 0.045535 -0.52057 0.32947 -0.36942 -0.37348 0.31756 0.81132 -0.044679 -0.79792 0.22949 -0.73993 0.90041 0.46883 0.4512 0.6644 0.24931 -0.88062 -0.042584 -0.21827
name 0.20957 0.75197 -0.48559 0.1302 0.60071 0.43273 -0.95424 -0.19335 -0.66756 -0.25893 0.66367 1.0509 0.10627 -0.75438 0.45617 0.37878 -0.40237 0.1821 -0.028768 0.24349 -0.35723 -0.55817 0.14103 0.58807 0.076804 -1.972 -1.4459 0.081884 -0.29207 -0.65623 2.718 -0.96886 -0.33354 -0.19526 0.33918 -0.24307 0.29058 -0.37178 -0.38133 -0.20901 0.48504 0.20702 -0.5754 -0.32403 -0.19267 -0.043298 -0.57702 -0.4727 0.42171 -0.14112
too 0.28667 -0.3802 -0.041817 -0.85846 0.06248 0.025986 -0.32459 0.18082 -0.65606 0.5788 -0.46697 0.47908 -0.39725 0.2364 0.52934 0.54077 0.56033 -0.099687 0.18613 -1.0673 -0.55724 0.50778 0.56096 0.2229 0.6416 -2.1331 -0.70944 0.8673 0.98519 -0.26189 3.434 0.43325 0.28927 -0.23043 0.014924 -0.08176 -0.2571 0.65917 -0.11367 -0.59716 -0.45952 0.58421 0.4071 0.86048 0.2111 -0.044352 -0.27231 -0.13064 0.18349 0.58699
led -0.23109 -0.36942 0.34672 0.32944 -0.015534 0.23284 -0.71186 0.21878 -0.70357 -0.094126 0.0042445 -0.29611 -1.2441 0.0071341 -0.35229 -0.57975 0.030221 -0.85082 -0.87152 -0.070827 -0.21201 -0.087516 -0.17794 -0.94777 -0.57044 -1.4992 0.042006 -1.0544 -0.42695 0.64141 2.9101 0.1632 -0.30053 -0.45197 0.12394 -0.14571 -0.27289 -0.079017 0.020513 0.3282 -0.78423 0.29553 -0.44485 -0.39406 0.4314 0.36886 -0.59713 0.061769 -0.20524 -0.52598
never 0.095387 -0.16865 -0.11514 -0.51114 0.38331 0.22658 -0.78504 0.67626 -0.66857 0.18847 0.19963 0.58351 -0.86134 -0.39472 1.1571 0.51657 0.11706 0.0062629 -0.2593 -0.33371 -0.47957 0.6211 0.66831 -0.058046 0.81305 -2.341 -0.75437 0.2167 0.78012 -0.81362 2.9368 0.13466 -0.38043 -0.59615 -0.093113 -0.2843 0.28314 0.59791 -0.20751 -0.43841 -0.34187 -0.21166 -0.082453 0.44007 -0.3365 -0.091078 -0.45859 -0.42103 -0.53817 0.13738
little 0.17639 0.27113 -0.60745 -0.70174 0.49138 0.014927 -0.47621 0.25309 -0.43157 0.23225 -0.53497 0.43512 0.16218 -0.31949 0.29499 0.30629 0.41197 0.19115 -0.31937 -0.82531 -0.32693 0.38597 0.22799 -0.063419 0.57518 -1.748 -1.0287 0.94946 1.0275 -0.53104 3.3557 0.3139 0.29872 0.10097 0.13238 -0.07951 -0.48739 -0.032861 0.39732 -1.037 -0.29017 0.31681 -0.175 0.17037 0.2029 0.042103 0.23785 -0.2911 5.27e-05 0.49025
death 0.49089 0.32534 0.0014417 -0.84331 0.65698 1.0089 0.2476 0.68178 0.13553 0.18069 -0.050148 -0.12704 -0.48039 -0.55024 1.5247 -0.43059 -0.88914 -0.58294 -0.7469 0.58781 -0.081227 0.48804 0.29895 -0.40216 0.31343 -2.4331 -0.83064 -0.77042 0.29021 0.56141 2.3164 -0.71611 -0.55002 -0.6197 0.16241 0.084582 0.95919 -0.71344 0.47596 0.30941 -0.85852 0.54195 -0.25035 -0.18671 0.45843 0.039168 -0.56138 -1.1905 0.21134 -0.59986
put 0.076143 -0.24717 0.40116 -0.44052 0.47109 -0.1377 -0.71907 0.13098 -0.17572 -0.03577 -0.25182 0.22588 -0.76386 0.24249 0.46617 0.10661 0.42314 -0.54628 -0.23715 -0.65187 -0.077369 0.28766 0.10809 -0.45786 0.067866 -1.8636 0.1389 0.17133 0.24996 -0.6366 3.2279 0.56937 -0.653 0.055097 -0.28294 0.17188 0.17931 0.49549 0.33623 -0.49653 0.10105 0.1834 0.095534 0.049611 -0.028313 0.27312 -0.24849 0.14717 0.11502 -0.25162
past -0.01222 0.12157 0.21075 -0.35345 -0.17744 -0.074262 -0.83749 0.029405 -0.51799 0.032236 -0.55173 -0.32714 -1.1209 0.026287 0.57893 -0.56773 0.065879 -0.97865 -0.56647 -0.1906 -0.35348 0.18305 0.1002 -0.35679 0.34278 -1.6577 0.087578 -0.012165 0.35908 -0.3606 3.2659 0.75655 0.60852 -0.4136 -0.28215 0.30708 -0.61592 0.3234 -0.31404 0.053713 -0.59432 0.35427 0.63662 0.22915 -0.095084 0.09055 0.15802 -0.036193 -0.21998 -0.97495
half 0.27931 -0.28647 0.41497 -0.62437 0.75088 0.14042 -0.93153 -0.018616 -0.24806 0.27858 -0.11939 -0.71734 -0.25439 -0.27851 0.67102 -0.31734 0.39026 -0.66194 -1.2477 -0.28825 -0.25599 -0.13761 0.29568 -0.2336 -0.22123 -1.0652 0.54228 0.19412 0.13858 -0.089078 3.6247 0.75508 0.25486 0.72049 0.27674 0.21596 -0.13574 0.85886 0.71066 -0.59648 -0.015641 0.43307 0.0012805 -0.036521 -0.55098 0.47248 0.097479 -0.10802 -0.063462 -0.47669
know 0.28328 0.12887 0.29861 -0.23238 0.88263 -0.30814 -0.61148 0.37254 -0.40449 0.17351 -0.13958 0.67868 -0.55673 -0.13453 1.1441 0.53457 0.59148 0.19083 0.25406 -0.71581 -0.87951 0.72879 0.67054 0.62866 1.0034 -2.2327 -1.194 -0.06245 0.93933 -1.1132 2.926 0.59809 -0.51255 -0.49886 -0.016524 -0.20697 -0.059229 -0.0072689 0.53314 -0.14621 -0.21417 0.24102 0.21648 0.73351 0.43582 0.045278 -0.25489 0.15273 -0.13088 0.89397
capital 0.9671 0.015075 -0.037533 0.41228 0.2294 -1.3994 0.55451 0.15029 -0.4455 -0.30868 -0.034114 -0.81486 0.049432 -1.1563 -0.39389 0.65088 0.16687 0.63657 -0.51867 0.52579 1.4363 0.32008 -0.61243 -0.00042186 -1.0033 -1.5331 0.16125 0.1803 -0.37446 0.15195 3.5526 0.59062 0.26993 -0.20902 0.057543 -0.17553 -1.0317 -0.98541 0.45809 0.69934 -0.53082 0.90582 0.61321 -0.97733 -0.80789 -0.10892 -0.4378 0.26284 0.37563 -0.69832
great -0.026567 1.3357 -1.028 -0.3729 0.52012 -0.12699 -0.35433 0.37824 -0.29716 0.093894 -0.034122 0.92961 -0.14023 -0.63299 0.020801 -0.21533 0.96923 0.47654 -1.0039 -0.24013 -0.36325 -0.004757 -0.5148 -0.4626 1.2447 -1.8316 -1.5581 -0.37465 0.53362 0.20883 3.2209 0.64549 0.37438 -0.17657 -0.024164 0.33786 -0.419 0.40081 -0.11449 0.051232 -0.15205 0.29855 -0.44052 0.11089 -0.24633 0.66251 -0.26949 -0.49658 -0.41618 -0.2549
small 1.1419 0.21621 0.05988 -0.22087 0.721 0.55394 -0.85043 -0.27485 0.0788 -0.54447 -0.16458 -0.39355 0.94567 0.3132 -0.57388 0.006172 0.51563 0.59235 -0.5439 -1.1097 0.13733 -0.66901 -0.16584 0.44869 -0.42889 -1.1225 -0.43607 0.55676 0.39962 -0.25964 3.8543 -0.33091 0.38144 0.059943 0.19653 0.50617 -0.41123 0.16168 0.1503 -0.061063 -0.0063997 0.1881 -0.037663 0.29605 0.46124 0.0066039 -0.30738 -0.64137 -0.058311 -0.45848
every -0.10258 0.34166 0.075527 -0.40585 1.0674 -0.1262 -0.41272 -0.27406 0.16411 -0.18036 -0.18313 -0.63687 0.27846 -0.04277 1.164 0.073369 0.12473 0.61435 -0.70332 -0.50966 0.17384 0.27148 0.5049 0.36091 0.65378 -1.4391 -0.66319 0.24911 0.73167 -0.47294 3.574 0.71069 -0.49581 -0.18803 -0.27293 0.0079214 0.68627 -0.041216 0.020293 -0.16559 -0.23225 -0.15599 -0.34995 0.73627 -0.44422 -0.22435 -0.054164 0.049678 -0.1437 0.408
head -0.28054 0.30915 -0.20189 0.029534 1.1279 -0.16588 -0.34552 -0.1501 -0.10558 -1.3804 0.50196 0.34911 -1.1159 0.75248 -0.062459 0.26311 -0.014602 0.4082 -0.40946 -0.31068 -0.55742 0.19177 0.1613 -0.52347 -0.4502 -2.1395 0.017281 0.78838 -1.0661 -0.0098552 2.7098 0.13188 -0.18186 0.045039 -0.54424 0.44033 -0.13247 0.29738 1.1019 0.1861 -0.40799 0.95422 -0.59251 -0.22513 0.52367 -0.30058 -0.33182 -0.20148 0.010825 -0.15397
ago 0.48384 0.036723 0.3554 -0.11934 0.13925 0.089866 -1.2636 -0.027009 -0.52288 -0.059505 -0.38398 -0.80808 -0.65736 -0.24665 1.2932 0.20113 -0.31522 -0.14376 -0.79002 0.2567 -0.059354 0.43529 0.2418 -0.62907 -0.037233 -1.7944 -0.16567 0.0054654 -0.056066 0.19838 2.9616 -0.11965 -0.16888 -0.035133 0.024751 -0.41839 -0.21409 0.41672 0.16242 -0.2483 -0.90225 0.15443 0.17426 0.21366 0.10285 0.096885 -0.56849 -0.21438 -0.68166 -0.3792
far 0.75138 -0.15736 0.47208 -0.39808 0.18646 -0.11205 -0.39927 -0.0030878 -0.11768 0.17457 -0.28558 -0.75653 -0.11924 -0.26523 0.45835 0.21689 0.56068 -0.11154 -0.62963 -0.36495 -0.42373 0.089858 0.28538 -0.04276 0.38846 -1.8075 -0.42596 0.44824 0.21389 0.028991 3.4978 0.23029 0.3997 -0.46777 0.088587 -0.61494 -0.35905 0.53317 -0.56891 -0.26047 -0.64743 0.29423 0.67012 0.22167 -0.50075 0.09279 -0.43656 0.23532 -0.26338 -0.16202
again -0.11008 -0.42842 0.023023 -0.66241 -0.011844 -0.21112 -0.77791 0.82479 -0.70825 -0.22962 0.14064 0.30398 -1.1173 -0.18641 0.82667 0.44993 -0.11678 -0.47856 -0.94898 -0.14977 0.19157 0.10528 0.66893 0.02207 0.52699 -1.9035 0.18775 0.26756 0.48347 -0.28322 3.1586 0.44772 -0.34549 -0.31892 -0.16631 -0.22289 0.26832 0.4367 -0.20443 -0.61761 -0.41918 -0.22599 -0.47885 -0.40102 -0.37106 0.24178 0.1351 -0.81978 -0.041543 -0.30139
point -0.1592 0.57726 0.11108 -0.004894 0.9289 -0.074486 -0.41857 0.23058 -0.60341 -0.14527 -0.23377 -0.38863 -0.35869 -0.53308 -0.33582 0.15434 0.44985 -0.94527 -1.3602 -0.43403 -0.25853 -0.17564 -0.23619 -0.081304 0.68566 -1.6123 0.32719 0.46708 0.65528 -0.4071 3.3234 -0.14992 0.11208 -0.4311 0.45804 -0.953 -0.15998 0.14427 0.027526 -0.24761 0.073804 -0.16347 0.19901 0.30233 -0.40974 -0.30176 1.0091 0.087863 0.46937 8.3356e-05
must 0.47769 -0.12242 0.29476 -0.52751 0.69156 -0.10851 0.20465 0.29798 -0.025924 -0.23163 0.49905 0.75481 -0.15678 0.0267 0.66682 0.99944 0.72597 -0.20416 0.75679 -0.97526 -0.1006 -0.19121 0.38095 0.20403 0.17145 -1.8234 -0.18598 -0.42763 0.36403 -0.50133 3.5515 0.69701 -1.3702 -0.63166 -0.086569 -0.16878 0.45671 -0.049201 -0.18019 -0.4342 -0.22463 -0.48252 0.55707 0.47351 -0.21837 0.1794 -0.26126 0.32514 -0.10781 0.12242
your -0.029163 0.81769 0.3847 -0.77857 1.1049 -0.13655 -0.024691 -0.051103 0.7795 0.051357 -0.35748 1.1748 -0.098244 0.33111 0.40426 0.58685 -0.62536 0.094833 0.97024 -1.1437 0.13826 0.28136 0.46693 0.35226 0.68916 -1.9819 -1.4 0.17001 1.5929 -1.0086 3.6499 1.3949 -0.78823 0.40404 -0.36925 0.73075 0.027513 -0.11993 0.73716 -1.0365 0.68659 -0.30294 -0.55175 0.96466 0.053103 -0.084807 0.8512 -0.54186 0.32453 0.58425
member -0.57994 0.6723 -0.27318 -0.10529 0.88184 0.44498 -0.45612 0.14556 -0.18469 -1.184 0.55989 0.13497 -0.31761 0.87132 -0.28813 -0.47291 0.47268 0.35035 0.013211 0.2598 -0.027157 -0.12247 0.56318 0.52381 -0.91397 -1.6781 -0.1515 -0.95438 -1.8472 0.42242 2.717 -0.2669 -0.88684 -0.522 0.0011383 -0.50711 0.26609 -0.21385 0.228 0.070963 -0.60607 -0.1267 -0.37877 -0.39469 -0.14672 -0.0034066 -1.268 -0.19551 -0.024034 0.27358
recent 0.3642 0.13178 -0.2072 0.099054 -0.65344 0.05483 -0.96659 -0.2155 0.0012952 0.35259 -0.56299 -0.68334 -0.594 7.6555e-05 0.68631 -0.085671 -0.62598 -0.895 -0.39966 -0.14068 0.44416 -0.017993 0.21494 -0.54021 -0.095953 -1.6026 -0.67521 0.19387 -0.27854 0.86275 3.5316 0.066025 0.58627 -0.8638 -0.17593 -0.2979 -0.59479 -0.10163 -0.67801 -0.31705 -1.017 0.37426 -0.18137 -0.13813 0.75843 -0.017967 -0.12302 0.93954 -0.26746 -0.26255
lost -0.57116 -0.21089 0.66327 0.71168 0.64827 0.18365 -0.68113 0.61631 -0.90734 -0.14877 0.15201 -0.20139 -0.64058 -0.66312 0.44106 0.01865 -0.34797 -0.41541 -1.2714 -0.09668 -0.31586 0.16589 0.10694 -0.61806 0.089309 -1.3677 -0.11939 -0.63738 0.33949 -0.085761 2.9216 0.64947 0.33815 0.34153 0.053704 -0.38756 -0.27187 0.29294 0.57254 -1.1245 -0.059138 -0.40877 0.3466 0.0038906 -0.29094 0.56712 -0.59772 -0.79149 0.27207 -0.50336
lead -0.28082 0.090083 0.37508 0.69311 0.14068 0.84946 -0.50829 0.89664 -0.10727 0.50618 -0.225 -0.61099 -1.0605 0.51236 -0.31787 -0.35918 0.82664 -1.4604 -0.92953 -0.51018 -0.62897 -0.10766 -0.16471 -0.6271 0.074354 -1.1028 0.22004 -0.61865 -0.0089281 -0.076962 3.1473 0.55912 -0.16795 -0.20584 0.2583 -0.15469 0.18157 0.52757 0.65605 -0.70857 -0.31964 -0.13145 -0.40443 -0.36479 0.42362 0.75078 0.24491 0.14162 0.23444 -0.086934
though 0.3903 -0.17259 -0.075305 -0.39021 0.31059 0.38853 -0.7663 0.11533 -0.47753 0.21311 0.20345 0.14469 -0.24917 -0.35336 0.71317 0.38793 0.016483 -0.26871 -0.30272 -0.58739 -0.38843 0.067819 0.30334 0.045109 0.37306 -1.7007 -0.46486 0.2912 0.2858 -0.022228 3.2505 -0.092747 0.28382 -0.64361 0.22927 -0.3339 0.008062 0.40452 -0.45019 -0.40314 -0.38381 0.16924 -0.076574 0.31471 -0.19571 0.0093488 -0.42037 -0.022852 -0.29299 0.15449
might 0.83844 -0.094368 0.4576 -0.18146 0.33734 0.11294 -0.47828 0.51275 -0.34708 0.37687 0.072579 0.5597 -0.16445 0.039525 0.82957 1.0815 0.39059 -0.53436 -0.12291 -0.87926 -0.25563 -0.16464 0.21707 0.007606 0.31639 -2.2555 -0.69248 0.039355 0.89019 -0.48138 3.1144 0.46584 -0.56668 -0.70703 0.084624 -0.42562 -0.12383 -0.08871 0.027247 -0.53851 -0.5631 0.18842 0.083938 0.68203 0.55677 0.018354 0.0081532 0.41744 -0.093393 0.36006
away 0.34176 -0.32715 0.66209 -0.71138 0.28488 -0.19242 -0.85185 0.56403 -0.13852 -0.06717 -0.42702 -0.20546 -0.70012 -0.13799 0.29457 0.1881 0.50458 -0.14432 -0.73977 -0.63253 0.06105 0.55907 0.45083 0.16689 0.55929 -1.924 0.48437 0.66656 0.89432 -1.0412 3.1784 1.0617 -0.15902 0.0067243 -0.35329 0.39728 -0.44211 0.41718 0.38365 -0.39747 -0.15511 0.21717 0.047058 0.3904 -0.20639 0.075575 0.09143 -1.0418 0.24466 -1.1117
large 1.1303 0.28035 0.15825 -0.36373 0.63884 0.40727 -0.6041 -0.38511 0.12849 -0.4438 -0.25311 -0.36961 1.016 0.27822 -0.4178 0.016858 0.55661 0.3856 -0.57398 -1.0437 0.50172 -1.1141 -0.19099 -0.11988 -0.75892 -1.0916 -0.46073 0.61686 0.34421 0.078685 3.8287 -0.32661 0.50127 -0.26291 -0.16509 0.69122 -0.41489 0.19888 -0.071731 -0.18805 -0.026401 0.14917 0.028164 0.33275 0.41858 -0.020588 -0.62518 -0.40942 -0.23624 -0.65003
press -0.47559 0.59191 -0.0036768 0.59487 -0.203 -0.78632 -0.92919 -0.17557 0.0079159 -0.88082 -0.61542 -0.0094559 -0.62884 -0.17575 0.78539 0.12645 -0.45861 -0.84154 0.1882 -0.072123 0.93554 0.67691 0.91796 0.22855 0.23493 -1.657 -0.377 0.2731 -0.687 -0.014572 2.6045 -0.30978 -0.31292 -0.88876 -1.0727 -0.13627 -0.11805 -0.22841 -0.028016 0.40617 0.86576 0.85138 -0.18297 -0.7882 0.4903 0.1963 -0.567 0.85609 0.31344 -0.077916
side 0.20712 0.45525 -0.59307 -0.37613 0.082234 0.22413 -0.31312 0.71027 -0.61976 -0.49796 0.13477 0.0056405 -0.77043 -0.19784 -0.70032 0.23177 0.815 -0.061393 -0.73146 -0.40748 -0.52122 0.052144 0.010133 0.68707 -0.21358 -1.5289 0.53722 1.1833 -0.022483 -0.55043 3.5116 0.5666 0.25898 -0.065076 0.34411 0.40766 0.25558 0.43896 -0.22385 -0.82314 0.51137 -0.13294 -0.16608 -0.23841 -0.12116 0.43584 0.013572 -0.14499 0.5076 -0.75084
seven 0.271 0.40263 0.49204 0.18279 0.40656 0.52487 -0.89496 0.22862 -0.28704 -0.46034 -0.6293 -0.59112 -0.61332 0.50357 0.74662 -0.85773 -0.054881 -0.37906 -1.2336 -0.00085258 -0.056966 0.20703 0.75846 -0.10698 -0.5638 -0.77717 0.35028 -0.70106 -0.33252 -0.39569 3.6042 0.48765 0.12197 0.41268 1.0879 0.47126 0.33869 0.10117 -0.055742 0.063739 -1.0909 -0.18791 0.55199 0.30131 -0.25402 0.24027 -0.40994 -0.11698 -0.2771 -0.81605
better -0.1209 -0.16821 0.24099 -0.30287 0.43578 -0.38367 -0.55203 -0.28681 -0.10092 0.47769 0.28969 0.29549 -0.44074 -0.13494 0.26022 0.45371 0.53749 0.06122 0.24366 -0.87761 -0.56241 0.24927 0.17941 -0.016943 0.57974 -1.3546 -0.53161 -0.26451 0.68211 -0.30482 3.7943 0.96326 -0.073896 -0.41032 0.24478 -0.14579 -0.086789 0.995 0.049928 -0.60302 -0.36585 -0.10114 0.40423 0.25951 0.087927 0.06196 0.075266 0.12755 0.066461 1.1163
less 0.50343 0.015858 0.33745 -0.63735 0.54691 0.39019 0.094177 -0.35546 -0.48083 0.7954 -0.15279 -0.59696 0.5462 -0.24196 0.57816 0.18048 0.23108 0.31356 -0.41453 -1.0321 -0.40474 -0.06759 0.34262 -0.11137 0.18348 -1.3207 -0.20151 0.45586 0.90485 0.60693 3.8475 0.24956 0.57628 -0.43086 0.32115 -0.40096 -0.14379 0.84858 -0.34062 -0.58987 -0.33593 0.26176 0.52602 0.77446 -0.22891 -0.090591 -0.341 0.168 -0.19985 0.81252
given 0.43768 0.5543 -0.27591 -0.36805 0.82612 0.14132 -0.0063327 0.17197 -0.0042713 0.14954 0.30217 0.43632 0.053702 -0.59632 0.64761 -0.024799 -0.016603 -0.40788 -0.24985 -0.58336 -0.13173 -0.18747 0.26913 -0.25625 0.021073 -1.6454 -0.53461 -0.12627 -0.09779 0.2995 3.3942 0.19733 -0.31749 -0.62559 0.52945 0.067728 0.49578 0.27542 -0.35416 -0.37977 0.20921 0.34261 -0.32328 0.53135 -0.53123 -0.39414 -0.12909 0.54714 0.071181 0.015065
give 0.30577 0.30053 0.22806 -0.14625 0.74309 -0.14415 -0.43512 0.59286 -0.1743 0.47471 -0.13492 0.33909 0.093609 -0.11892 0.31555 0.3845 0.54051 -0.69359 0.24688 -0.93476 -0.041963 0.25972 -0.004559 -0.1688 0.088309 -1.7161 -0.16327 -0.40159 0.13859 -0.93499 3.366 1.1006 -0.96759 -0.092375 0.19996 -0.17415 0.1836 0.20687 0.10418 -0.7353 0.33549 0.11443 -0.016682 0.23897 -0.036168 0.25008 -0.19502 0.70866 -0.039504 0.18456
often 0.48292 -0.10589 -0.48755 -0.72499 -0.033428 0.64621 -0.28778 -0.028235 -0.67209 0.27879 -0.085806 0.39258 0.37097 -0.008954 0.27041 0.12437 0.04556 -0.11547 0.1824 -1.0934 -0.26857 0.12346 0.68076 0.60554 0.32689 -1.4725 -0.71837 0.33633 0.55901 -0.12365 3.6349 -0.040454 0.49109 -0.99409 0.049392 0.50667 -0.27718 0.17365 -0.74709 0.10036 -0.13906 0.47679 0.073626 1.0399 0.56961 -0.37777 -0.17187 -0.1995 -0.25104 -0.17212
order 0.59594 0.027426 -0.37212 -0.43777 0.90033 -0.10551 0.3488 0.34644 0.11622 -0.46675 0.40657 1.0254 -0.072136 -0.12719 0.20944 0.22438 -0.32991 -0.89753 0.061887 -0.78079 0.55576 -0.72526 -0.32109 -0.090179 -0.49251 -1.4597 -0.19504 -1.1512 0.4673 0.13954 3.3605 0.096328 -1.2275 -0.45464 0.2279 0.2145 0.50552 -0.40703 -0.2411 0.15025 0.063791 -0.34117 0.22175 0.25812 -0.397 0.48599 -0.17694 -0.37738 0.18143 -0.27109
round -0.51244 0.37181 -0.26364 0.99462 -0.37948 0.027235 -0.17732 1.0833 -0.31456 -0.46593 -0.61127 -1.1127 -1.1977 0.61233 0.53078 -0.41192 0.41183 -1.0644 -1.2442 -0.64279 -0.40882 -0.34751 0.364 -0.10313 -0.23033 -0.87574 0.48898 -0.071108 -0.18226 -0.43197 3.1387 0.62531 -0.45273 0.71353 0.37931 -0.011962 0.6446 1.2584 -0.48879 -1.1429 -0.17432 -0.39026 0.20802 -0.39155 0.26571 0.70799 0.5553 -0.31012 -0.063959 -0.18801
asked 0.30223 -0.037525 0.064813 -0.11347 0.86964 -0.34098 -0.80298 0.65853 -0.42797 -0.61368 -0.1592 0.56978 -0.23922 -0.1868 1.0778 0.46471 -0.16932 -0.37244 0.53189 -0.67248 0.2037 0.92642 0.40655 -0.12211 0.35366 -2.3814 0.016283 -0.029915 -0.65479 -0.75188 2.3825 0.078445 -0.94136 -0.50593 -0.055964 -0.58799 0.48748 -0.068667 0.33584 0.0062263 0.055027 0.80432 -0.16203 -0.049612 0.26343 -0.32295 -0.78767 0.45976 -0.22192 0.78108
fire 0.50905 -0.36805 0.41275 -0.44637 -0.017932 -0.12425 -0.43753 0.52016 -0.1449 -0.83957 -0.32243 -0.71141 -0.43867 -0.13184 -0.27728 0.011158 0.097582 0.5546 -1.3955 -0.58442 0.25271 0.74644 -0.18067 -0.46553 -0.09358 -1.4951 0.2663 0.55315 1.103 -0.06003 3.0834 -0.57123 -0.91293 -0.52011 0.057919 0.8553 0.75373 -1.2263 0.60596 0.76143 -0.02809 -0.077767 -0.10431 -0.50895 0.92005 0.21507 -0.29191 -0.03356 0.056012 -0.43283
rose -0.80901 0.2091 0.85659 0.18123 1.0849 -0.075861 -0.82726 -0.96318 -0.40827 0.45425 0.4642 -0.58634 -0.014735 -1.0625 0.39668 0.19313 -1.2619 -0.35233 -1.019 -0.63384 1.2078 0.18914 0.055527 -1.117 -0.7025 -0.58161 0.064159 -0.030037 -0.1067 0.44689 2.8481 0.12098 1.2057 0.93686 0.48936 -1.5921 -0.87753 -0.32164 1.0237 -0.70042 -0.54317 0.1281 0.54337 -0.86638 0.065663 0.017083 -0.12465 -0.61839 0.14818 -0.032635
received -0.054145 0.7298 0.0016229 -0.44068 0.15912 0.53178 -0.70194 0.15198 0.13031 0.16476 0.24064 -0.027987 0.44239 -0.7943 0.6058 -0.85314 -0.90057 -0.030576 -0.67777 -0.023208 0.61149 0.33867 0.53693 -0.93423 -0.35544 -1.595 -0.18236 -0.64329 -1.1814 -0.1561 2.7987 0.2176 -0.18034 -0.60257 0.53631 0.077195 0.83558 0.29713 0.20219 -0.41437 0.46622 0.40304 -0.26113 -0.25432 -0.74666 -0.5893 -0.72256 0.64339 -0.26776 0.13484
eight 0.0691 0.42247 0.67768 0.22944 0.40694 0.60352 -0.74431 0.25769 -0.24504 -0.46178 -0.52454 -0.91074 -0.49691 0.52518 0.59525 -1.0125 -0.1745 -0.15636 -1.3133 -0.20655 -0.036517 0.17894 0.76015 -0.16871 -0.52895 -0.8503 0.46335 -0.67872 -0.39183 -0.4092 3.5699 0.55358 0.076693 0.38853 1.1011 0.53138 0.49286 0.31955 -0.18245 0.014887 -0.85835 -0.19661 0.6663 0.1232 -0.046825 0.19542 -0.38691 -0.10834 -0.33741 -0.79467
black -0.96256 0.65329 -0.55152 -0.41065 0.80223 0.9833 -0.96007 -1.029 -0.47013 -0.6812 0.071232 -0.25591 0.60577 0.29845 -0.1837 -0.26064 -0.038707 0.11412 -0.72028 -1.2694 -0.73858 0.3357 0.44293 0.02566 -0.97692 -1.6867 -0.88665 0.75824 0.18836 -0.6932 2.6144 0.11718 -0.45564 -0.42953 -0.052095 0.11656 -0.66685 -0.86056 -0.093886 -0.74592 -0.062858 0.54547 0.28987 -0.26887 0.71881 -0.074307 -0.18512 -1.2621 -0.3246 -0.56563
services 0.64004 0.27029 0.26208 0.15573 -0.31636 -0.085634 -1.1548 -0.51424 1.2036 -0.83512 0.48004 0.40719 0.056176 -0.41852 -0.7217 0.14392 -1.1009 0.26455 0.6003 -0.013637 1.6695 0.12136 -0.77214 0.49072 -0.60833 -1.0132 0.49926 -1.015 -0.14751 0.41612 3.7691 0.76037 0.42838 -0.63489 -0.054498 0.14418 0.094942 -0.11031 0.33915 0.54325 0.6401 -0.31586 0.049959 0.43183 -0.19109 -0.19309 -0.60553 0.4603 0.3726 0.87739
story 0.48251 0.87746 -0.23455 0.0262 0.79691 0.43102 -0.60902 -0.60764 -0.42812 -0.012523 -1.2894 0.52656 -0.82763 0.30689 1.1972 -0.47674 -0.46885 -0.19524 -0.28403 0.35237 0.45536 0.76853 0.0062157 0.55421 1.0006 -1.3973 -1.6894 0.30003 0.60678 -0.46044 2.5961 -1.2178 0.28747 -0.46175 -0.25943 0.38209 -0.28312 -0.47642 -0.059444 -0.59202 0.25613 0.21306 -0.016129 -0.29873 -0.19468 0.53611 0.75459 -0.4112 0.23625 0.26451
across 0.5236 -0.020293 0.26881 -0.48425 -0.54396 -0.46181 -0.90864 -0.32993 0.62731 -0.68066 -0.54416 -1.072 0.039323 0.029368 -0.49019 -0.059847 0.2317 -0.17236 -0.62349 -0.69779 0.48163 0.21039 0.30509 0.50297 0.13997 -1.2732 0.08541 0.70401 0.20331 -0.65306 3.679 0.55571 0.51758 -0.46839 -0.60765 0.082281 -0.94349 -0.38319 -0.3827 0.70752 -0.56429 0.48173 0.38864 0.038322 -0.21097 0.14094 0.14637 -0.91432 -0.6157 -1.3112
seen 0.55561 0.1704 0.13692 -0.42465 0.29217 -0.048319 -0.53161 -0.35126 -0.22719 0.13147 -0.20608 -0.28269 -0.37404 0.29351 0.39153 0.34661 0.044221 -0.34175 -0.52337 -0.46987 -0.14017 0.18722 0.24656 -0.053256 0.23045 -1.5119 -0.847 0.71509 0.46199 0.23993 3.1182 0.35718 0.35219 -0.75299 -0.10162 -0.062021 -0.30178 -0.14056 -0.68188 -0.20476 -0.7639 0.45981 -0.22565 0.030521 0.36894 -0.462 -0.34768 -0.32978 0.24825 -0.38275
process 0.68525 -0.47829 -0.55225 0.024169 0.0029638 0.67548 0.15225 0.18152 0.65191 0.4242 0.14589 -0.16702 -0.5893 0.37439 0.25109 0.34084 0.58726 -0.40817 1.1789 -0.69625 0.90883 -0.094169 0.16631 -0.37207 0.39692 -0.85462 0.10122 -0.19532 0.54515 0.47161 3.7108 -0.72146 -1.6717 -0.90013 -0.16224 -0.047358 0.048583 0.74427 0.19788 0.057165 -0.45093 -0.76164 -0.55902 -0.18532 -0.22089 -0.075002 0.59967 0.73447 -0.093923 -0.0075732
quarter -0.37143 -0.52233 1.1411 0.34156 0.47258 0.08504 -1.2413 -0.3483 -0.20544 0.36543 -0.04783 -1.203 -1.063 -0.8376 0.7106 -0.019276 -0.39933 -1.3191 -1.4527 -0.092972 0.077318 -0.98632 -0.38711 -0.98131 -0.35026 -0.52978 -0.097141 -0.019685 0.4795 0.041758 3.2976 0.85146 1.4168 0.96503 0.31778 -0.68157 -0.14226 0.62615 0.72286 -0.72407 -0.49024 -0.16691 -0.14651 -0.33174 -0.47584 0.32973 0.58522 0.73137 0.2306 0.12007
yet 0.6935 -0.13892 -0.10862 -0.18671 0.56311 0.070388 -0.52788 0.35681 -0.21765 0.44888 -0.14023 0.020312 -0.44203 0.072964 0.85846 0.41819 0.19097 -0.33512 0.012309 -0.53561 -0.44548 0.38117 0.2255 -0.26948 0.56835 -1.717 -0.7606 0.43306 0.4189 0.091699 3.2262 -0.18561 -0.014535 -0.69816 0.21151 -0.28682 0.12492 0.49278 -0.57784 -0.75677 -0.47876 -0.083749 -0.013377 0.19862 -0.14819 0.21787 -0.30472 0.54255 -0.20916 0.14965
behind 0.143 0.26092 0.76382 0.35628 0.91959 0.49457 -0.76588 0.064717 -0.33686 -0.28793 -0.45472 -0.58281 -1.6087 0.41016 0.17273 -0.17497 0.44972 -0.50394 -0.72187 -0.69418 -0.4176 0.44668 -0.1709 0.019292 0.22104 -1.5443 0.052365 0.3387 0.30423 -0.34121 2.6934 0.33241 -0.079032 -0.18409 -0.063973 0.064029 -0.33883 0.54885 -0.0067208 -0.46441 -0.11413 0.0045283 -0.0016191 0.19871 0.35567 0.10761 0.038032 -0.74866 0.41515 -0.90085
strong -0.28486 0.15815 0.044641 0.074495 0.62572 0.32729 0.011979 0.054972 -0.23145 0.66981 0.30527 -0.28122 -0.1431 -0.12982 -0.73904 -0.025547 0.27519 -0.41614 -0.40354 -0.86711 -0.63341 -0.058841 -0.44273 -0.79434 0.27998 -1.4932 -0.15541 0.18691 0.12789 0.84641 3.8373 0.45602 0.76044 -0.54549 -0.32262 -0.59138 -0.68035 -0.20346 -0.50434 -0.72351 -0.15833 0.32317 -0.36685 -0.38641 0.59325 0.19611 -0.31782 0.53302 -0.15775 0.23456
enough 0.36349 -0.21569 0.6504 -0.66659 0.66962 -0.033247 -0.14641 0.4757 -0.027242 0.68283 -0.3005 0.16224 0.13964 -0.049015 0.3111 0.4039 0.82817 0.066499 -0.12749 -1.4641 -0.24064 0.21676 0.49294 -0.3412 0.46205 -1.7469 -0.38856 0.33027 1.0585 -0.28635 3.519 0.69348 -0.19525 -0.47188 0.25665 0.28303 -0.10587 0.82391 0.20327 -1.0366 -0.029874 0.10529 0.14582 0.47456 0.08294 0.28384 -0.17346 0.23783 -0.14903 0.44835
call 0.098201 0.39924 0.25697 -0.085349 0.27175 -0.63637 -0.62719 0.25895 -0.53249 -0.22927 -0.76258 0.2173 0.37017 0.082194 0.46016 0.14439 -0.35333 -0.62408 0.1025 -0.58597 0.16874 0.41939 0.082275 0.48931 0.62348 -1.8434 -0.11815 -0.25465 0.38033 -0.41893 3.0159 0.35014 -1.2656 -0.14951 -0.32056 -0.72769 0.5398 -1.2532 -0.013795 -0.0048093 0.37453 0.41136 -0.12614 0.48701 0.4782 0.35898 -0.1709 0.70284 0.32207 0.77503
outside 0.67751 0.22249 -0.032198 -0.16374 0.57229 -0.93367 -0.82656 0.31582 0.02441 -0.51036 -0.26261 -1.3476 -0.10487 -0.0037803 -0.067118 0.60251 0.25636 0.25521 -0.45102 -0.54298 0.66872 0.79584 -0.41457 0.71251 -0.39771 -1.7351 0.15267 0.78654 0.15484 -0.64701 3.0757 0.11801 -0.19143 -0.75106 -0.11382 0.17232 0.16219 -0.10994 0.24001 0.67559 -0.087003 0.32909 0.1901 0.26918 0.30016 -0.14438 -0.41624 -0.70384 -0.13109 -0.75527
almost 0.55327 -0.35144 0.2448 -0.68109 0.86277 0.22278 -0.32666 0.003581 -0.40371 0.54298 -0.10883 -0.78166 -0.0037682 -0.26139 1.1052 -0.13811 -0.022479 0.24059 -0.87683 -0.47907 -0.37793 0.42507 0.27705 -0.17269 0.46911 -1.2012 -0.41195 0.67513 0.77431 0.24337 3.584 -0.083263 0.59184 0.058267 -0.20361 -0.12139 0.0015715 0.41631 -0.23581 -0.41083 -0.29021 0.078223 0.23413 0.57476 -0.85823 0.021465 -0.27098 -0.21749 -0.59966 -0.26632
single -0.22134 0.49323 0.53095 0.034966 0.84472 1.243 -0.65654 0.1101 0.57588 0.51051 0.42149 -0.11424 -0.32944 1.2483 0.21969 -0.78259 0.011031 -0.25458 -0.26874 -0.40993 -0.28695 -0.74664 0.086946 0.47804 -0.13756 -1.0215 -0.58399 0.052754 0.63793 -0.53228 3.6309 -0.6695 0.10321 0.6221 0.33825 -0.19048 1.2381 -0.18893 -0.32235 -0.36509 -0.041479 -0.60827 -0.59985 -0.25661 -0.59776 -0.37118 -0.059661 -0.66769 0.097989 0.42921
together 0.52691 0.062192 0.013797 -0.24144 0.94915 0.90511 -0.67528 -0.5075 -1.0105 -0.24563 0.18366 -0.071627 -0.56162 0.41912 0.39582 0.32691 0.46197 0.085586 0.27197 -0.56735 0.64228 0.71947 0.9811 0.072394 0.34421 -0.44457 -0.14271 -0.36439 0.0033597 -0.87613 3.4852 0.7384 -0.43386 -0.27189 -0.087298 0.1076 -0.45525 0.6328 0.14832 0.074073 -0.43526 -0.29084 0.087274 -0.39251 -0.17586 0.089582 -0.13581 -0.75564 -0.5576 -0.42156
results 0.087739 0.1205 -0.055462 1.2501 -0.39726 -0.20533 0.1694 0.54744 0.22219 0.17485 0.50907 -1.1685 -0.74995 -0.49909 0.97557 0.60391 -0.47027 -1.0152 -0.56823 -1.1348 0.23463 -0.26927 0.85125 0.004758 0.032431 -0.8334 -1.418 -0.090377 -0.87929 0.53086 3.1828 0.40265 -0.40857 -1.0655 0.21221 -0.92504 0.548 1.1508 0.036407 -0.94276 -0.20125 -0.84362 -0.11281 0.23204 0.22245 0.20522 0.30897 1.1533 0.98419 -0.17333
face -0.051524 0.25137 -0.14722 -0.061506 0.32593 0.38156 0.55556 0.62217 -0.16847 -0.21296 -0.28909 -0.15927 -0.65887 0.083074 0.58494 0.0089347 0.11029 -0.81686 -0.15163 -0.78485 -0.78144 0.21021 -0.034455 -0.2988 -0.46719 -2.1546 0.15288 0.50366 0.3593 -0.12171 2.9504 0.76009 0.025124 -0.36938 -0.40831 0.40751 -0.16736 -0.15224 -0.09004 -1.3537 -0.24557 0.53153 0.56965 0.18923 0.61818 0.066045 -0.029378 -0.40707 0.0065966 -0.61169
energy 0.068807 0.36938 1.0194 0.72622 0.33166 -0.11674 0.0519 -0.6263 0.69984 1.1034 0.88412 0.61662 0.06318 0.52554 -0.60775 0.58884 0.86194 0.73354 -0.27098 -1.1423 1.231 -0.38583 0.16454 -1.2052 0.081969 -1.1499 0.34174 0.16186 0.46667 1.2949 3.2169 0.25992 -0.19911 -0.86953 -0.43616 -0.7124 -1.0666 0.37666 1.222 0.49324 -0.11295 0.31521 -0.073187 -0.56738 -0.21031 0.75698 -0.53484 0.86998 0.023162 0.49219
things 0.22678 -0.14627 -0.34042 -0.39456 0.72194 -0.14548 -0.40267 -0.1647 -0.62927 0.35451 -0.57827 0.83488 -0.89982 -0.032669 1.1455 0.59324 0.50642 -0.082951 0.49207 -1.1169 -0.063833 0.5827 0.60461 0.19144 1.1256 -1.5186 -1.1558 0.36884 1.5009 -0.9557 3.2162 0.71336 -0.17653 -0.64164 -0.18563 0.19992 -0.34019 0.53515 0.13862 -0.099263 -0.59026 0.10021 0.17771 0.71645 0.19723 0.39284 0.24215 0.082052 0.045228 0.63316
post -0.25084 0.29379 0.17915 -0.31418 -0.14598 -0.79813 -0.98887 -0.13936 0.06614 -1.105 -0.65604 -0.26072 -0.53725 0.1231 0.30833 -0.020635 -0.69418 -0.77642 -0.038226 0.57202 0.37442 0.13187 -0.14168 0.014391 -0.14011 -1.7285 -0.16066 0.10788 -0.15002 0.77973 2.978 -0.45587 -0.14469 -0.37718 -0.59619 0.38612 -0.0039065 0.35839 0.31881 -0.28991 0.46167 0.52256 -0.30722 0.075893 -0.50202 0.24811 -0.02015 0.074841 0.20337 0.1406
ever -0.09184 0.045829 -0.014578 -0.15912 0.36966 -0.055325 -0.64645 0.37028 0.044005 0.31908 -0.0022221 0.054468 -0.55971 0.32805 1.2631 -0.024974 0.4151 0.41472 -0.8 -0.36899 -0.26027 -0.001687 0.19953 0.073913 0.5828 -2.0068 -1.0067 0.034075 0.41367 -0.072996 2.9454 0.27576 0.1077 -0.40572 0.0011923 0.061022 0.069987 0.52403 -0.76733 -0.93638 -0.81252 -0.1123 0.10376 0.29453 -0.27063 -0.012739 -0.3171 -0.03374 -0.39644 -0.019175
himself 0.26672 -0.20723 0.071057 -1.0715 1.1178 0.48904 -0.45592 0.5182 -0.87917 0.31479 -0.063093 0.71834 -1.0115 0.069413 0.3061 -0.035464 0.13265 0.013419 -0.065832 -0.035541 -0.042574 0.72448 0.27434 -0.14834 0.68946 -2.4809 -0.30622 -0.074942 0.045173 -0.41012 2.2878 -0.2637 -0.50743 -0.65031 -0.15885 0.36169 0.17234 0.90324 -0.4235 -0.44363 0.2119 0.4647 -0.86723 0.037213 -0.086144 -0.31825 -0.53223 -1.0349 0.093597 -0.19409
problems 1.0223 0.10931 0.02345 0.2028 -0.84025 0.99172 -0.046859 0.12298 0.29216 -0.44474 0.21638 0.40109 -1.2058 -0.36189 0.73603 0.46581 -0.37633 -0.15207 0.68421 -0.7264 -0.39255 0.053339 -0.077758 -0.17231 0.5989 -1.513 -0.060468 -0.0001394 0.51362 0.7298 3.5944 0.69276 0.4987 -1.2985 -0.082193 0.5969 -0.31554 0.20036 0.71518 0.2987 -0.82342 0.13102 0.20069 0.81894 0.43841 0.39971 0.25966 0.90112 0.19557 -0.13727
lower -0.22492 -0.15599 0.33274 -0.75665 0.31325 0.2132 0.50755 -0.027856 -0.057906 -0.17188 0.37383 -0.70115 0.71375 -0.30271 -0.6462 1.1794 -0.38214 -0.8009 -0.3949 -0.96584 0.55352 -1.1825 -0.002944 -0.17211 -0.53418 -1.3003 0.14426 0.55481 -0.65616 0.57594 3.9183 0.22069 1.2892 0.3889 0.78073 -1.2605 -0.16506 0.061085 0.90305 -0.52317 -1.0507 0.15649 0.43754 0.50505 -0.50092 0.08064 0.59708 -0.53114 0.37657 -0.39513
form 0.56753 0.27592 -0.63927 -0.056709 0.18394 1.1685 0.30643 -0.27317 -0.30291 0.43855 0.54986 0.35057 0.065629 0.2697 -0.47189 0.29592 0.32129 -0.31124 -0.1542 -0.31495 -0.29969 -0.69391 0.48761 0.49253 -0.33012 -0.93747 -0.44062 0.051767 -0.092574 0.21899 3.7494 -0.47923 -0.26518 -0.36895 0.041559 0.19942 0.20267 0.2354 -0.26481 -0.49624 0.3448 -0.44459 -0.45436 0.54088 -0.17108 0.43885 0.16974 -0.21389 0.096059 -0.66869
sent 0.56908 -0.3038 0.58962 -0.60463 0.23175 -0.83838 -0.96474 0.69986 0.050388 -0.67683 0.010685 0.47909 0.15622 -0.081531 0.40144 -0.50638 -1.0101 -0.87595 -0.77605 -0.055398 0.31691 0.024995 0.48105 -0.54154 0.049018 -2.0521 0.444 -0.33084 -0.28094 -0.38326 2.5332 0.0072955 -0.4257 -0.2783 -0.059978 0.4162 0.066504 -0.27241 0.12932 0.054092 0.57229 0.64629 0.23473 -0.52973 0.42543 0.15771 -0.066993 0.08032 -0.26301 -0.76193
always 0.15778 0.2638 -0.44502 -0.46819 0.88558 -0.11134 -0.22886 0.25545 -0.53813 0.33681 0.022259 0.6781 -0.48255 0.0024954 0.55938 0.4102 0.61032 0.18802 0.22943 -0.9891 -0.72062 0.52451 0.33157 0.48512 0.9676 -1.9021 -0.93215 0.47344 0.85667 -0.52803 3.1994 0.51182 -0.083763 -0.48335 -0.12347 -0.27206 -0.14103 0.5947 -0.61738 -0.29798 -0.16374 0.0086967 -0.12262 0.66676 0.097146 -0.044463 -0.27159 -0.14953 -0.22232 0.52731
wife 0.57651 1.1396 -0.21861 -0.28966 1.1153 1.5722 -0.93256 0.64556 -0.46543 -0.51727 -0.15117 0.42836 -0.16713 -0.69901 1.1323 0.011065 -1.0741 -0.0339 0.69631 0.57713 0.18758 1.8321 0.18763 0.01924 0.79317 -2.219 -0.059368 -0.31341 -0.13352 -0.28548 1.6446 -0.10649 -0.17428 0.12541 0.35026 -0.21368 -0.060237 0.45354 0.62313 -0.5117 -0.093284 0.76768 0.068956 -0.73425 0.24843 -0.85864 -1.0081 -2.0724 0.232 0.37039
position -0.55894 0.15014 0.0038519 -0.27889 0.99202 -0.1676 0.012802 0.65897 -0.60377 -0.97738 0.4523 0.25876 -1.0853 0.20828 -0.69508 0.3402 0.20096 -0.38015 -0.27208 -0.37343 -0.46603 -0.3012 -0.01115 0.0041076 0.052624 -1.8389 0.23335 -0.032109 0.054835 0.62374 3.2314 -0.011983 -0.33739 -0.62997 0.20938 -0.38513 0.0090812 0.75395 -0.57975 -0.56322 -0.08052 -0.51245 -0.40874 0.15753 -0.83449 -0.18828 0.10356 0.29887 0.23092 0.22999
clear 0.60506 0.18191 0.16394 -0.17322 0.39003 0.14191 -0.18749 0.22792 -0.13433 -0.039739 -0.29248 -0.11435 -0.61228 -0.11084 -0.086806 0.43197 0.46269 -0.91279 0.0032686 -0.87722 -0.43656 0.4111 0.30053 -0.471 0.48141 -1.6452 -0.0087763 1.0281 0.61239 -0.057788 3.166 -0.069298 -0.67973 -0.75351 -0.038444 -0.42413 0.17885 0.28132 -0.38948 -0.27017 0.22063 -0.018678 0.18915 0.1661 -0.20282 0.10659 -0.30766 0.7015 0.42221 -0.35024
believe 0.58979 -0.26647 0.53642 -0.46648 0.93958 0.059251 -0.43161 0.050446 -0.1823 0.56424 0.093586 0.16454 -0.43468 -0.24738 0.64491 0.65876 0.77999 -0.32867 0.12281 -0.30894 -0.63677 0.33784 0.39404 0.0051813 0.58064 -2.1587 -0.90265 -0.39912 0.35394 -0.37011 2.6363 0.2065 -0.68239 -0.90132 -0.12276 -0.91148 -0.16604 -0.23857 -0.080387 -0.10168 -0.6872 -0.21279 0.2631 0.76259 0.5156 0.057379 -0.75805 0.57521 0.0235 0.056102
wanted 0.42313 -0.085664 0.39257 -0.26436 0.91753 -0.20125 -0.79365 0.4649 -0.5998 0.16584 -0.072112 0.51557 -0.65811 -0.058332 0.86576 0.42474 0.50195 -0.13366 0.32371 -0.30759 0.069879 0.72223 0.16765 0.32189 0.0068441 -2.1866 -0.42124 -0.51454 0.26426 -0.9317 2.4987 0.36012 -1.0884 -0.40066 0.12073 -0.26807 0.0077703 -0.099351 -0.18726 -0.35652 -0.017883 0.21095 0.096117 -0.10971 0.32473 -0.31938 -0.7913 -0.05859 -0.29982 0.34184
